{"learner":{"attributes":{"best_iteration":"99","best_ntree_limit":"100","scikit_learn":"{\"use_label_encoder\": false, \"n_estimators\": 100, \"objective\": \"multi:softmax\", \"max_depth\": 10, \"max_leaves\": null, \"max_bin\": null, \"grow_policy\": null, \"learning_rate\": 0.01, \"verbosity\": null, \"booster\": null, \"tree_method\": \"hist\", \"gamma\": null, \"min_child_weight\": null, \"max_delta_step\": null, \"subsample\": 0.7999999999999999, \"sampling_method\": null, \"colsample_bytree\": 0.8999999999999999, \"colsample_bylevel\": 0.5, \"colsample_bynode\": null, \"reg_alpha\": null, \"reg_lambda\": null, \"scale_pos_weight\": null, \"base_score\": null, \"missing\": NaN, \"num_parallel_tree\": null, \"random_state\": 0, \"n_jobs\": null, \"monotone_constraints\": null, \"interaction_constraints\": null, \"importance_type\": null, \"gpu_id\": null, \"validate_parameters\": null, \"predictor\": null, \"enable_categorical\": false, \"max_cat_to_onehot\": null, \"eval_metric\": null, \"early_stopping_rounds\": null, \"callbacks\": null, \"kwargs\": {\"num_class\": 10}, \"classes_\": [0, 1, 2, 3, 4], \"n_classes_\": 5, \"_estimator_type\": \"classifier\"}"},"feature_names":[],"feature_types":[],"gradient_booster":{"model":{"gbtree_model_param":{"num_parallel_tree":"1","num_trees":"500","size_leaf_vector":"0"},"tree_info":[0,1,2,3,4,0,1,2,3,4,0,1,2,3,4,0,1,2,3,4,0,1,2,3,4,0,1,2,3,4,0,1,2,3,4,0,1,2,3,4,0,1,2,3,4,0,1,2,3,4,0,1,2,3,4,0,1,2,3,4,0,1,2,3,4,0,1,2,3,4,0,1,2,3,4,0,1,2,3,4,0,1,2,3,4,0,1,2,3,4,0,1,2,3,4,0,1,2,3,4,0,1,2,3,4,0,1,2,3,4,0,1,2,3,4,0,1,2,3,4,0,1,2,3,4,0,1,2,3,4,0,1,2,3,4,0,1,2,3,4,0,1,2,3,4,0,1,2,3,4,0,1,2,3,4,0,1,2,3,4,0,1,2,3,4,0,1,2,3,4,0,1,2,3,4,0,1,2,3,4,0,1,2,3,4,0,1,2,3,4,0,1,2,3,4,0,1,2,3,4,0,1,2,3,4,0,1,2,3,4,0,1,2,3,4,0,1,2,3,4,0,1,2,3,4,0,1,2,3,4,0,1,2,3,4,0,1,2,3,4,0,1,2,3,4,0,1,2,3,4,0,1,2,3,4,0,1,2,3,4,0,1,2,3,4,0,1,2,3,4,0,1,2,3,4,0,1,2,3,4,0,1,2,3,4,0,1,2,3,4,0,1,2,3,4,0,1,2,3,4,0,1,2,3,4,0,1,2,3,4,0,1,2,3,4,0,1,2,3,4,0,1,2,3,4,0,1,2,3,4,0,1,2,3,4,0,1,2,3,4,0,1,2,3,4,0,1,2,3,4,0,1,2,3,4,0,1,2,3,4,0,1,2,3,4,0,1,2,3,4,0,1,2,3,4,0,1,2,3,4,0,1,2,3,4,0,1,2,3,4,0,1,2,3,4,0,1,2,3,4,0,1,2,3,4,0,1,2,3,4,0,1,2,3,4,0,1,2,3,4,0,1,2,3,4,0,1,2,3,4,0,1,2,3,4,0,1,2,3,4,0,1,2,3,4,0,1,2,3,4,0,1,2,3,4,0,1,2,3,4,0,1,2,3,4,0,1,2,3,4,0,1,2,3,4,0,1,2,3,4,0,1,2,3,4,0,1,2,3,4,0,1,2,3,4,0,1,2,3,4],"trees":[{"base_weights":[-3.7634405E-1,1.4035087E-2,-5.889145E-3],"categories":[],"categories_nodes":[],"categories_segments":[],"categories_sizes":[],"default_left":[0,0,0],"id":0,"left_children":[1,-1,-1],"loss_changes":[7.863747E0,0E0,0E0],"parents":[2147483647,0,0],"right_children":[2,-1,-1],"split_conditions":[-1.6016924E0,1.4035087E-2,-5.889145E-3],"split_indices":[1,0,0],"split_type":[0,0,0],"sum_hessian":[1.76E1,1.2800001E0,1.6320002E1],"tree_param":{"num_deleted":"0","num_feature":"5","num_nodes":"3","size_leaf_vector":"0"}},{"base_weights":[9.070294E-2,-5.109489E-3,3.3434647E-1,1.1570247E0,-1.2875536E-1,8.7719294E-4,1.5168539E-2,1.8518517E-3,-2.5423726E-1,-4.7619045E-3,5.154639E-2,3.8461536E-3,-3.5087718E-3],"categories":[],"categories_nodes":[],"categories_segments":[],"categories_sizes":[],"default_left":[0,0,0,0,0,0,0,0,0,0,0,0,0],"id":1,"left_children":[1,-1,3,5,7,-1,-1,-1,9,-1,11,-1,-1],"loss_changes":[2.756657E0,0E0,5.16272E0,1.7292166E0,4.1423178E-1,0E0,0E0,0E0,5.050631E-1,0E0,6.550079E-1,0E0,0E0],"parents":[2147483647,0,0,2,2,3,3,4,4,8,8,10,10],"right_children":[2,-1,4,6,8,-1,-1,-1,10,-1,12,-1,-1],"split_conditions":[-7.361953E-1,-5.109489E-3,1.4669484E-1,-3.529348E-1,-1.0356862E-1,8.7719294E-4,1.5168539E-2,1.8518517E-3,4.669655E-1,-4.7619045E-3,8.987459E-1,3.8461536E-3,-3.5087718E-3],"split_indices":[3,0,1,2,0,0,0,0,0,0,0,0,0],"split_type":[0,0,0,0,0,0,0,0,0,0,0,0,0],"sum_hessian":[1.6640001E1,4.4800005E0,1.2160001E1,3.8400002E0,8.320001E0,1.2800001E0,2.5600002E0,2.2400002E0,6.0800004E0,3.2000003E0,2.88E0,1.6000001E0,1.2800001E0],"tree_param":{"num_deleted":"0","num_feature":"5","num_nodes":"13","size_leaf_vector":"0"}},{"base_weights":[1.203501E-1,-5.660377E-3,9.447004E-1,-0E0,1.4963503E-2,5.263157E-3,-4.109589E-3],"categories":[],"categories_nodes":[],"categories_segments":[],"categories_sizes":[],"default_left":[0,0,0,0,0,0,0],"id":2,"left_children":[1,-1,3,5,-1,-1,-1],"loss_changes":[1.0877999E1,0E0,4.5235295E0,1.1247296E0,0E0,0E0,0E0],"parents":[2147483647,0,0,2,2,3,3],"right_children":[2,-1,4,6,-1,-1,-1],"split_conditions":[2.2595327E-2,-5.660377E-3,7.485523E-1,3.8458905E-1,1.4963503E-2,5.263157E-3,-4.109589E-3],"split_indices":[3,0,1,3,0,0,0],"split_type":[0,0,0,0,0,0,0],"sum_hessian":[1.728E1,9.6E0,7.6800003E0,3.2000003E0,4.4800005E0,1.2800001E0,1.9200001E0],"tree_param":{"num_deleted":"0","num_feature":"5","num_nodes":"7","size_leaf_vector":"0"}},{"base_weights":[-1.3292433E-1,-4.0342295E-1,9.523809E-1,-4.9844235E-3,-4.4247787E-2,1.3013697E-2,8.7719294E-4,8.7719294E-4,-1.2345678E-3],"categories":[],"categories_nodes":[],"categories_segments":[],"categories_sizes":[],"default_left":[0,0,0,0,0,0,0,0,0],"id":3,"left_children":[1,3,5,-1,7,-1,-1,-1,-1],"loss_changes":[6.126512E0,5.36289E-1,1.1532252E0,0E0,5.807702E-2,0E0,0E0,0E0,0E0],"parents":[2147483647,0,0,1,1,2,2,4,4],"right_children":[2,4,6,-1,8,-1,-1,-1,-1],"split_conditions":[9.001035E-1,2.2236925E-1,7.485523E-1,-4.9844235E-3,7.8156E-1,1.3013697E-2,8.7719294E-4,8.7719294E-4,-1.2345678E-3],"split_indices":[2,3,1,0,1,0,0,0,0],"split_type":[0,0,0,0,0,0,0,0,0],"sum_hessian":[1.8560001E1,1.5360001E1,3.2000003E0,1.1840001E1,3.5200002E0,1.9200001E0,1.2800001E0,1.2800001E0,2.2400002E0],"tree_param":{"num_deleted":"0","num_feature":"5","num_nodes":"9","size_leaf_vector":"0"}},{"base_weights":[2.0084566E-1,1.299435E0,-4.2056072E-1,-3.5087718E-3,1.724138E-2,8.7719294E-4,-4.8442903E-1,-1.6853932E-1,-5.555555E-3,-3.5087718E-3,8.7719294E-4],"categories":[],"categories_nodes":[],"categories_segments":[],"categories_sizes":[],"default_left":[0,0,0,0,0,0,0,0,0,0,0],"id":4,"left_children":[1,3,5,-1,-1,-1,7,9,-1,-1,-1],"loss_changes":[1.3462617E1,5.56728E0,4.593184E-1,0E0,0E0,0E0,1.660986E-1,1.9712201E-1,0E0,0E0,0E0],"parents":[2147483647,0,0,1,1,2,2,6,6,7,7],"right_children":[2,4,6,-1,-1,-1,8,10,-1,-1,-1],"split_conditions":[-3.3912957E-1,-1.6016924E0,-2.5945242E-2,-3.5087718E-3,1.724138E-2,8.7719294E-4,8.407122E-2,1.2660731E-1,-5.555555E-3,-3.5087718E-3,8.7719294E-4],"split_indices":[1,1,1,0,0,0,0,2,0,0,0],"split_type":[0,0,0,0,0,0,0,0,0,0,0],"sum_hessian":[1.7920002E1,6.0800004E0,1.1840001E1,1.2800001E0,4.8E0,1.2800001E0,1.056E1,2.5600002E0,8.000001E0,1.2800001E0,1.2800001E0],"tree_param":{"num_deleted":"0","num_feature":"5","num_nodes":"11","size_leaf_vector":"0"}},{"base_weights":[-4.2196646E-1,9.5731E-3,-5.866154E-3],"categories":[],"categories_nodes":[],"categories_segments":[],"categories_sizes":[],"default_left":[0,0,0],"id":5,"left_children":[1,-1,-1],"loss_changes":[4.6282854E0,0E0,0E0],"parents":[2147483647,0,0],"right_children":[2,-1,-1],"split_conditions":[-1.5137527E0,9.5731E-3,-5.866154E-3],"split_indices":[2,0,0],"split_type":[0,0,0],"sum_hessian":[1.6907423E1,1.2896532E0,1.561777E1],"tree_param":{"num_deleted":"0","num_feature":"5","num_nodes":"3","size_leaf_vector":"0"}},{"base_weights":[-2.3224965E-2,2.6798412E-1,-3.3315668E-1,-2.6946467E-1,1.4020546E-2,8.6845853E-4,-4.1421792E-1,-3.5834122E-1,8.6082995E-4,-2.060071E-1,-4.9557206E-3,1.6011785E-5,-4.8598438E-3,-3.8473166E-3,8.8437484E-4],"categories":[],"categories_nodes":[],"categories_segments":[],"categories_sizes":[],"default_left":[0,0,0,0,0,0,0,0,0,0,0,0,0,0,0],"id":6,"left_children":[1,3,5,7,-1,-1,9,11,-1,13,-1,-1,-1,-1,-1],"loss_changes":[1.6824393E0,6.262557E0,3.4227717E-1,2.6435006E-1,0E0,0E0,2.8585196E-2,2.8128266E-1,0E0,2.38149E-1,0E0,0E0,0E0,0E0,0E0],"parents":[2147483647,0,0,1,1,2,2,3,3,6,6,7,7,9,9],"right_children":[2,4,6,8,-1,-1,10,12,-1,14,-1,-1,-1,-1,-1],"split_conditions":[1.4669484E-1,-5.5685896E-1,-3.7632322E-1,-7.361953E-1,1.4020546E-2,8.6845853E-4,6.8404317E-1,-6.105952E-1,8.6082995E-4,2.0209885E-1,-4.9557206E-3,1.6011785E-5,-4.8598438E-3,-3.8473166E-3,8.8437484E-4],"split_indices":[1,3,0,3,0,0,3,0,0,3,0,0,0,0,0],"split_type":[0,0,0,0,0,0,0,0,0,0,0,0,0,0,0],"sum_hessian":[1.6651764E1,8.654973E0,7.9967904E0,6.38937E0,2.2656026E0,1.2821624E0,6.714628E0,5.1053295E0,1.2840406E0,2.8788843E0,3.835744E0,1.5950071E0,3.5103223E0,1.6006639E0,1.2782204E0],"tree_param":{"num_deleted":"0","num_feature":"5","num_nodes":"15","size_leaf_vector":"0"}},{"base_weights":[2.5031868E-1,-5.4315077E-3,8.3558464E-1,-1.1600787E-1,1.5319808E0,3.844865E-3,-4.49198E-3,1.7059747E-2,5.1838425E-3],"categories":[],"categories_nodes":[],"categories_segments":[],"categories_sizes":[],"default_left":[0,0,0,0,0,0,0,0,0],"id":7,"left_children":[1,-1,3,5,7,-1,-1,-1,-1],"loss_changes":[8.210354E0,0E0,6.8087845E0,1.0328615E0,1.4705849E-1,0E0,0E0,0E0,0E0],"parents":[2147483647,0,0,2,2,3,3,4,4],"right_children":[2,-1,4,6,8,-1,-1,-1,-1],"split_conditions":[-3.3778552E-2,-5.4315077E-3,7.1364427E-1,1.7173392E-1,4.669655E-1,3.844865E-3,-4.49198E-3,1.7059747E-2,5.1838425E-3],"split_indices":[2,0,1,3,0,0,0,0,0],"split_type":[0,0,0,0,0,0,0,0,0],"sum_hessian":[1.5702546E1,6.6961946E0,9.006351E0,4.1580243E0,4.848327E0,1.6002651E0,2.557759E0,3.5549874E0,1.29334E0],"tree_param":{"num_deleted":"0","num_feature":"5","num_nodes":"9","size_leaf_vector":"0"}},{"base_weights":[-5.3304974E-2,-2.9642284E-1,5.7979417E-1,-5.270807E-3,-9.142059E-2,1.3900444E-2,-4.497596E-4,2.1973327E-1,-4.757829E-3,8.827573E-4,-6.944687E-4,5.2703894E-3,5.3857744E-4,-3.838975E-3,3.8394174E-3],"categories":[],"categories_nodes":[],"categories_segments":[],"categories_sizes":[],"default_left":[0,0,0,0,0,0,0,0,0,0,0,0,0,0,0],"id":8,"left_children":[1,3,5,-1,7,-1,9,11,-1,-1,-1,-1,13,-1,-1],"loss_changes":[3.0330272E0,6.1820114E-1,2.584547E0,0E0,1.1415895E0,0E0,3.185584E-2,3.6858162E-1,0E0,0E0,0E0,0E0,7.660457E-1,0E0,0E0],"parents":[2147483647,0,0,1,1,2,2,4,4,6,6,7,7,12,12],"right_children":[2,4,6,-1,8,-1,10,12,-1,-1,-1,-1,14,-1,-1],"split_conditions":[6.8404317E-1,-3.3912957E-1,6.7225486E-1,-5.270807E-3,5.592303E-1,1.3900444E-2,8.260065E-1,-4.078987E-1,-4.757829E-3,8.827573E-4,-6.944687E-4,5.2703894E-3,1.4669484E-1,-3.838975E-3,3.8394174E-3],"split_indices":[3,1,1,0,1,0,3,2,0,0,0,0,1,0,0],"split_type":[0,0,0,0,0,0,0,0,0,0,0,0,0,0,0],"sum_hessian":[1.7588913E1,1.3092878E1,4.4960356E0,5.421636E0,7.6712418E0,1.2937822E0,3.2022533E0,4.4760504E0,3.1951914E0,1.2786222E0,1.9236312E0,1.2787876E0,3.1972625E0,1.595837E0,1.6014256E0],"tree_param":{"num_deleted":"0","num_feature":"5","num_nodes":"15","size_leaf_vector":"0"}},{"base_weights":[2.5865105E-1,1.2824061E0,-3.9706388E-1,8.667655E-4,1.529561E-2,8.663712E-4,-4.6601593E-1,-2.0524605E-1,-5.397608E-3,-3.839175E-3,8.8432943E-4],"categories":[],"categories_nodes":[],"categories_segments":[],"categories_sizes":[],"default_left":[0,0,0,0,0,0,0,0,0,0,0],"id":9,"left_children":[1,3,5,-1,-1,-1,7,9,-1,-1,-1],"loss_changes":[1.2373555E1,1.9765787E0,4.2516124E-1,0E0,0E0,0E0,8.6413145E-2,2.3723729E-1,0E0,0E0,0E0],"parents":[2147483647,0,0,1,1,2,2,6,6,7,7],"right_children":[2,4,6,-1,-1,-1,8,10,-1,-1,-1],"split_conditions":[-5.5685896E-1,-9.198822E-1,9.126187E-2,8.667655E-4,1.529561E-2,8.663712E-4,5.862667E-1,2.0603707E-1,-5.397608E-3,-3.839175E-3,8.8432943E-4],"split_indices":[3,0,1,0,0,0,1,1,0,0,0],"split_type":[0,0,0,0,0,0,0,0,0,0,0],"sum_hessian":[1.667393E1,6.136849E0,1.0537081E1,1.2825587E0,4.85429E0,1.2826648E0,9.254416E0,2.8741827E0,6.380234E0,1.5959518E0,1.2782309E0],"tree_param":{"num_deleted":"0","num_feature":"5","num_nodes":"11","size_leaf_vector":"0"}},{"base_weights":[-4.2435214E-1,-5.864989E-3,9.530396E-3],"categories":[],"categories_nodes":[],"categories_segments":[],"categories_sizes":[],"default_left":[0,0,0],"id":10,"left_children":[1,-1,-1],"loss_changes":[4.617943E0,0E0,0E0],"parents":[2147483647,0,0],"right_children":[2,-1,-1],"split_conditions":[8.857108E-1,-5.864989E-3,9.530396E-3],"split_indices":[4,0,0],"split_type":[0,0,0],"sum_hessian":[1.7174055E1,1.5878975E1,1.2950791E0],"tree_param":{"num_deleted":"0","num_feature":"5","num_nodes":"3","size_leaf_vector":"0"}},{"base_weights":[4.2188417E-2,-5.0995313E-3,2.4789327E-1,5.4977566E-1,-2.1559012E-1,8.0168355E-1,-3.8396968E-3,5.3307913E-2,-4.482422E-3,1.7563502E-1,1.3206348E-2,3.859114E-3,-3.498302E-3,9.549286E-3,-4.3127392E-3],"categories":[],"categories_nodes":[],"categories_segments":[],"categories_sizes":[],"default_left":[0,0,0,0,0,0,0,0,0,0,0,0,0,0,0],"id":11,"left_children":[1,-1,3,5,7,9,-1,11,-1,13,-1,-1,-1,-1,-1],"loss_changes":[2.2754798E0,0E0,2.1415153E0,2.4335556E0,4.2559978E-1,2.185563E0,0E0,6.5421677E-1,0E0,2.5524158E0,0E0,0E0,0E0,0E0,0E0],"parents":[2147483647,0,0,2,2,3,3,4,4,5,5,7,7,9,9],"right_children":[2,-1,4,6,8,10,-1,12,-1,14,-1,-1,-1,-1,-1],"split_conditions":[-6.2100756E-1,-5.0995313E-3,5.234471E-1,6.138985E-1,7.9302883E-1,2.707447E-1,-3.8396968E-3,-7.045004E-1,-4.482422E-3,-2.4533823E-1,1.3206348E-2,3.859114E-3,-3.498302E-3,9.549286E-3,-4.3127392E-3],"split_indices":[1,0,2,1,1,4,0,4,0,4,0,0,0,0,0],"split_type":[0,0,0,0,0,0,0,0,0,0,0,0,0,0,0],"sum_hessian":[1.7921463E1,4.4630194E0,1.3458443E1,8.037297E0,5.421146E0,6.441049E0,1.5962481E0,2.8722656E0,2.54888E0,3.5259194E0,2.91513E0,1.597227E0,1.2750385E0,1.2926627E0,2.2332566E0],"tree_param":{"num_deleted":"0","num_feature":"5","num_nodes":"15","size_leaf_vector":"0"}},{"base_weights":[9.4064705E-2,-5.5616647E-3,6.489604E-1,-8.889913E-2,1.531052E0,6.1389445E-3,-4.9560396E-3,1.7583244E-2,5.1091295E-3],"categories":[],"categories_nodes":[],"categories_segments":[],"categories_sizes":[],"default_left":[0,0,0,0,0,0,0,0,0],"id":12,"left_children":[1,-1,3,5,7,-1,-1,-1,-1],"loss_changes":[7.1950135E0,0E0,7.0880423E0,2.2367985E0,2.4233818E-1,0E0,0E0,0E0,0E0],"parents":[2147483647,0,0,2,2,3,3,4,4],"right_children":[2,-1,4,6,8,-1,-1,-1,-1],"split_conditions":[-3.3778552E-2,-5.5616647E-3,7.9302883E-1,2.0209885E-1,8.1916577E-1,6.1389445E-3,-4.9560396E-3,1.7583244E-2,5.1091295E-3],"split_indices":[2,0,1,3,3,0,0,0,0],"split_type":[0,0,0,0,0,0,0,0,0],"sum_hessian":[1.7940924E1,8.259769E0,9.681153E0,5.7611966E0,3.919957E0,1.9251194E0,3.8360775E0,2.613986E0,1.3059709E0],"tree_param":{"num_deleted":"0","num_feature":"5","num_nodes":"9","size_leaf_vector":"0"}},{"base_weights":[-9.7501725E-2,-4.3571246E-1,1.866256E-1,-5.3097527E-3,-6.581611E-4,-2.5345406E-1,8.293591E-1,-5.103709E-3,3.8448833E-3,1.09324325E-2,8.740215E-4],"categories":[],"categories_nodes":[],"categories_segments":[],"categories_sizes":[],"default_left":[0,0,0,0,0,0,0,0,0,0,0],"id":13,"left_children":[1,3,5,-1,-1,7,9,-1,-1,-1,-1],"loss_changes":[1.8355747E0,2.6930642E-1,3.2144241E0,0E0,0E0,1.3550532E0,7.954376E-1,0E0,0E0,0E0,0E0],"parents":[2147483647,0,0,1,1,2,2,5,5,6,6],"right_children":[2,4,6,-1,-1,8,10,-1,-1,-1,-1],"split_conditions":[1.4669484E-1,5.239708E-1,9.001035E-1,-5.3097527E-3,-6.581611E-4,4.153903E-1,9.101779E-1,-5.103709E-3,3.8448833E-3,1.09324325E-2,8.740215E-4],"split_indices":[1,4,2,0,0,4,1,0,0,0,0],"split_type":[0,0,0,0,0,0,0,0,0,0,0],"sum_hessian":[1.7255487E1,7.6343884E0,9.621099E0,5.724607E0,1.9097815E0,6.0703754E0,3.550724E0,4.4701123E0,1.6002632E0,2.2699392E0,1.2807848E0],"tree_param":{"num_deleted":"0","num_feature":"5","num_nodes":"11","size_leaf_vector":"0"}},{"base_weights":[1.7130357E-1,1.2990046E0,-4.1920757E-1,1.726848E-2,-4.9175913E-5,-4.4320337E-2,-5.5668596E-3,5.237075E-3,-4.3160655E-3],"categories":[],"categories_nodes":[],"categories_segments":[],"categories_sizes":[],"default_left":[0,0,0,0,0,0,0,0,0],"id":14,"left_children":[1,3,5,-1,-1,7,-1,-1,-1],"loss_changes":[1.2762202E1,3.6622581E0,6.349008E-1,0E0,0E0,1.2204667E0,0E0,0E0,0E0],"parents":[2147483647,0,0,1,1,2,2,5,5],"right_children":[2,4,6,-1,-1,8,-1,-1,-1],"split_conditions":[-3.3912957E-1,2.0668557E-1,8.407122E-2,1.726848E-2,-4.9175913E-5,9.284183E-2,-5.5668596E-3,5.237075E-3,-4.3160655E-3],"split_indices":[1,4,0,0,0,4,0,0,0],"split_type":[0,0,0,0,0,0,0,0,0],"sum_hessian":[1.7347023E1,5.549441E0,1.1797582E1,3.9342003E0,1.6152407E0,3.52036E0,8.277222E0,1.2843585E0,2.2360015E0],"tree_param":{"num_deleted":"0","num_feature":"5","num_nodes":"9","size_leaf_vector":"0"}},{"base_weights":[-3.8890117E-1,1.3712194E-2,-5.889414E-3],"categories":[],"categories_nodes":[],"categories_segments":[],"categories_sizes":[],"default_left":[0,0,0],"id":15,"left_children":[1,-1,-1],"loss_changes":[7.751935E0,0E0,0E0],"parents":[2147483647,0,0],"right_children":[2,-1,-1],"split_conditions":[-1.7132992E0,1.3712194E-2,-5.889414E-3],"split_indices":[2,0,0],"split_type":[0,0,0],"sum_hessian":[1.8722996E1,1.3132459E0,1.740975E1],"tree_param":{"num_deleted":"0","num_feature":"5","num_nodes":"3","size_leaf_vector":"0"}},{"base_weights":[7.654959E-2,3.066615E-1,-5.091465E-3,-4.940672E-3,6.715796E-1,9.9359673E-1,-1.6725096E-1,2.6860165E-3,1.2101118E-2,8.940073E-4,-3.5029736E-3],"categories":[],"categories_nodes":[],"categories_segments":[],"categories_sizes":[],"default_left":[0,0,0,0,0,0,0,0,0,0,0],"id":16,"left_children":[1,3,-1,-1,5,7,9,-1,-1,-1,-1],"loss_changes":[2.5802684E0,4.287371E0,0E0,0E0,2.792554E0,8.0045176E-1,1.9823785E-1,0E0,0E0,0E0,0E0],"parents":[2147483647,0,0,1,1,4,4,5,5,6,6],"right_children":[2,4,-1,-1,6,8,10,-1,-1,-1,-1],"split_conditions":[7.9302883E-1,-6.2100756E-1,-5.091465E-3,-4.940672E-3,8.548804E-1,-2.728184E-1,9.431343E-1,2.6860165E-3,1.2101118E-2,8.940073E-4,-3.5029736E-3],"split_indices":[1,1,0,0,2,1,0,0,0,0,0],"split_type":[0,0,0,0,0,0,0,0,0,0,0],"sum_hessian":[1.6986431E1,1.2537167E1,4.4492645E0,3.814097E0,8.723069E0,6.1699834E0,2.5530856E0,1.9341391E0,4.2358446E0,1.2758273E0,1.2772584E0],"tree_param":{"num_deleted":"0","num_feature":"5","num_nodes":"11","size_leaf_vector":"0"}},{"base_weights":[2.0852841E-1,-5.575348E-3,8.326668E-1,-3.172344E-2,1.5424578E0,3.0899143E-1,-4.3107127E-3,5.114849E-3,1.7103933E-2,-3.8339838E-3,9.586149E-3],"categories":[],"categories_nodes":[],"categories_segments":[],"categories_sizes":[],"default_left":[0,0,0,0,0,0,0,0,0,0,0],"id":17,"left_children":[1,-1,3,5,7,9,-1,-1,-1,-1,-1],"loss_changes":[9.993394E0,0E0,7.0330653E0,9.6489674E-1,2.108717E-1,2.1131344E0,0E0,0E0,0E0,0E0,0E0],"parents":[2147483647,0,0,2,2,3,3,4,4,5,5],"right_children":[2,-1,4,6,8,10,-1,-1,-1,-1,-1],"split_conditions":[-3.3778552E-2,-5.575348E-3,7.485523E-1,5.2455616E-1,-6.082245E-1,2.0603707E-1,-4.3107127E-3,5.114849E-3,1.7103933E-2,-3.8339838E-3,9.586149E-3],"split_indices":[2,0,1,1,4,1,0,0,0,0,0],"split_type":[0,0,0,0,0,0,0,0,0,0,0],"sum_hessian":[1.8930069E1,8.546664E0,1.0383405E1,5.1125717E0,5.270833E0,2.8809056E0,2.231666E0,1.3050041E0,3.9658287E0,1.5929269E0,1.2879786E0],"tree_param":{"num_deleted":"0","num_feature":"5","num_nodes":"11","size_leaf_vector":"0"}},{"base_weights":[1.2079894E-1,-2.9414892E-1,1.2095495E0,-5.2996106E-3,-6.915399E-2,1.597051E-2,4.8508984E-3,3.952997E-1,-3.4291047E-1,5.2729184E-3,8.944889E-4,-4.851947E-3,8.883251E-4],"categories":[],"categories_nodes":[],"categories_segments":[],"categories_sizes":[],"default_left":[0,0,0,0,0,0,0,0,0,0,0,0,0],"id":18,"left_children":[1,3,5,-1,7,-1,-1,9,11,-1,-1,-1,-1],"loss_changes":[8.609832E0,7.078904E-1,6.9555664E-1,0E0,1.1948473E0,0E0,0E0,9.631151E-2,3.9799505E-1,0E0,0E0,0E0,0E0],"parents":[2147483647,0,0,1,1,2,2,4,4,7,7,8,8],"right_children":[2,4,6,-1,8,-1,-1,10,12,-1,-1,-1,-1],"split_conditions":[9.001035E-1,-3.6088336E-1,6.7225486E-1,-5.2996106E-3,1.8170917E-1,1.597051E-2,4.8508984E-3,-2.4404001E-1,7.4054897E-1,5.2729184E-3,8.944889E-4,-4.851947E-3,8.883251E-4],"split_indices":[2,1,1,0,1,0,0,2,3,0,0,0,0],"split_type":[0,0,0,0,0,0,0,0,0,0,0,0,0],"sum_hessian":[1.7270266E1,1.3032941E1,4.2373247E0,5.701691E0,7.3312497E0,1.97595E0,2.2613745E0,2.5540612E0,4.777189E0,1.2783592E0,1.275702E0,3.4999487E0,1.2772399E0],"tree_param":{"num_deleted":"0","num_feature":"5","num_nodes":"13","size_leaf_vector":"0"}},{"base_weights":[2.9335025E-1,1.3830386E0,-4.0156502E-1,1.781499E-2,-5.358596E-5,8.521015E-4,-4.691471E-1,-1.2263702E-3,-5.4783653E-3],"categories":[],"categories_nodes":[],"categories_segments":[],"categories_sizes":[],"default_left":[0,0,0,0,0,0,0,0,0],"id":19,"left_children":[1,3,5,-1,-1,-1,7,-1,-1],"loss_changes":[1.424179E1,4.027566E0,4.2852855E-1,0E0,0E0,0E0,2.1979427E-1,0E0,0E0],"parents":[2147483647,0,0,1,1,2,2,6,6],"right_children":[2,4,6,-1,-1,-1,8,-1,-1],"split_conditions":[-3.3912957E-1,2.0668557E-1,-7.799794E-2,1.781499E-2,-5.358596E-5,8.521015E-4,8.407122E-2,-1.2263702E-3,-5.4783653E-3],"split_indices":[1,4,1,0,0,0,0,0,0],"split_type":[0,0,0,0,0,0,0,0,0],"sum_hessian":[1.7074043E1,6.2629538E0,1.08110895E1,4.6463504E0,1.6166036E0,1.2861879E0,9.524902E0,2.2362108E0,7.288691E0],"tree_param":{"num_deleted":"0","num_feature":"5","num_nodes":"9","size_leaf_vector":"0"}},{"base_weights":[-4.2872983E-1,-5.86065E-3,9.39394E-3],"categories":[],"categories_nodes":[],"categories_segments":[],"categories_sizes":[],"default_left":[0,0,0],"id":20,"left_children":[1,-1,-1],"loss_changes":[4.5750437E0,0E0,0E0],"parents":[2147483647,0,0],"right_children":[2,-1,-1],"split_conditions":[1.1258544E0,-5.86065E-3,9.39394E-3],"split_indices":[4,0,0],"split_type":[0,0,0],"sum_hessian":[1.7696507E1,1.6383968E1,1.3125384E0],"tree_param":{"num_deleted":"0","num_feature":"5","num_nodes":"3","size_leaf_vector":"0"}},{"base_weights":[-4.8776317E-2,1.3936315E-1,-5.0133555E-3,-3.0979005E-1,8.28295E-1,-5.0258073E-3,-1.6939823E-4,-3.837914E-3,1.4648158E-2,2.7023044E-3,-3.489538E-3],"categories":[],"categories_nodes":[],"categories_segments":[],"categories_sizes":[],"default_left":[0,0,0,0,0,0,0,0,0,0,0],"id":21,"left_children":[1,3,-1,5,7,-1,9,-1,-1,-1,-1],"loss_changes":[1.4913707E0,4.1478176E0,0E0,4.977525E-1,4.6011543E0,0E0,4.904706E-1,0E0,0E0,0E0,0E0],"parents":[2147483647,0,0,1,1,3,3,4,4,6,6],"right_children":[2,4,-1,6,8,-1,10,-1,-1,-1,-1],"split_conditions":[7.1364427E-1,2.707447E-1,-5.0133555E-3,3.8599694E-1,-7.091726E-1,-5.0258073E-3,8.987459E-1,-3.837914E-3,1.4648158E-2,2.7023044E-3,-3.489538E-3],"split_indices":[1,4,0,0,0,0,0,0,0,0,0],"split_type":[0,0,0,0,0,0,0,0,0,0,0],"sum_hessian":[1.569523E1,1.1575203E1,4.1200266E0,7.3401084E0,4.235094E0,4.139415E0,3.2006936E0,1.5949605E0,2.6401339E0,1.9298067E0,1.2708868E0],"tree_param":{"num_deleted":"0","num_feature":"5","num_nodes":"11","size_leaf_vector":"0"}},{"base_weights":[1.2815198E-1,-5.436265E-3,7.4128497E-1,9.1449E-1,-1.2735011E-5,1.366684E-2,3.856449E-1,7.525621E-3,-7.35619E-4],"categories":[],"categories_nodes":[],"categories_segments":[],"categories_sizes":[],"default_left":[0,0,0,0,0,0,0,0,0],"id":22,"left_children":[1,-1,3,5,-1,-1,7,-1,-1],"loss_changes":[6.756121E0,0E0,1.0927539E0,1.1190462E0,0E0,0E0,8.2467085E-1,0E0,0E0],"parents":[2147483647,0,0,2,2,3,3,6,6],"right_children":[2,-1,4,6,-1,-1,8,-1,-1],"split_conditions":[-3.3778552E-2,-5.436265E-3,9.0291107E-1,2.2236925E-1,-1.2735011E-5,1.366684E-2,-1.5840887E-1,7.525621E-3,-7.35619E-4],"split_indices":[2,0,0,3,0,0,4,0,0],"split_type":[0,0,0,0,0,0,0,0,0],"sum_hessian":[1.44243765E1,6.937106E0,7.48727E0,5.8834014E0,1.6038686E0,2.317511E0,3.5658903E0,1.6270267E0,1.9388636E0],"tree_param":{"num_deleted":"0","num_feature":"5","num_nodes":"9","size_leaf_vector":"0"}},{"base_weights":[1.0348918E-1,-1.8383294E-1,7.465269E-1,-3.502705E-1,2.4119303E-1,8.618321E-4,9.25052E-1,-5.4756626E-3,5.0883517E-3,-6.614597E-4,5.282034E-3,1.2673659E-2,8.0499664E-4],"categories":[],"categories_nodes":[],"categories_segments":[],"categories_sizes":[],"default_left":[0,0,0,0,0,0,0,0,0,0,0,0,0],"id":23,"left_children":[1,3,5,7,9,-1,11,-1,-1,-1,-1,-1,-1],"loss_changes":[3.338361E0,9.883742E-1,5.743594E-1,1.9040688E0,4.0434417E-1,0E0,1.130949E0,0E0,0E0,0E0,0E0,0E0,0E0],"parents":[2147483647,0,0,1,1,2,2,3,3,4,4,6,6],"right_children":[2,4,6,8,10,-1,12,-1,-1,-1,-1,-1,-1],"split_conditions":[5.741166E-1,4.153903E-1,1.9135234E-1,8.0969965E-1,-1.2661443E-3,8.618321E-4,1.3194239E0,-5.4756626E-3,5.0883517E-3,-6.614597E-4,5.282034E-3,1.2673659E-2,8.0499664E-4],"split_indices":[0,4,1,2,2,0,2,0,0,0,0,0,0],"split_type":[0,0,0,0,0,0,0,0,0,0,0,0,0],"sum_hessian":[1.6325953E1,1.1777602E1,4.5483503E0,8.589781E0,3.1878214E0,1.2835176E0,3.2648325E0,7.2804413E0,1.3093393E0,1.9110011E0,1.2768202E0,1.9669516E0,1.297881E0],"tree_param":{"num_deleted":"0","num_feature":"5","num_nodes":"13","size_leaf_vector":"0"}},{"base_weights":[4.988355E-2,1.1201231E0,-4.985401E-1,-3.5063934E-3,1.5366913E-2,8.3655154E-4,-5.6957435E-3],"categories":[],"categories_nodes":[],"categories_segments":[],"categories_sizes":[],"default_left":[0,0,0,0,0,0,0],"id":24,"left_children":[1,3,5,-1,-1,-1,-1],"loss_changes":[1.1520606E1,4.604454E0,5.869603E-1,0E0,0E0,0E0,0E0],"parents":[2147483647,0,0,1,1,2,2],"right_children":[2,4,6,-1,-1,-1,-1],"split_conditions":[-3.3912957E-1,-9.198822E-1,-4.078987E-1,-3.5063934E-3,1.5366913E-2,8.3655154E-4,-5.6957435E-3],"split_indices":[1,0,2,0,0,0,0],"split_type":[0,0,0,0,0,0,0],"sum_hessian":[1.7676682E1,5.6358914E0,1.204079E1,1.2788758E0,4.3570156E0,1.2900329E0,1.0750757E1],"tree_param":{"num_deleted":"0","num_feature":"5","num_nodes":"7","size_leaf_vector":"0"}},{"base_weights":[-4.1724405E-1,1.1804594E-2,-5.838895E-3],"categories":[],"categories_nodes":[],"categories_segments":[],"categories_sizes":[],"default_left":[0,0,0],"id":25,"left_children":[1,-1,-1],"loss_changes":[5.4012184E0,0E0,0E0],"parents":[2147483647,0,0],"right_children":[2,-1,-1],"split_conditions":[-1.7132992E0,1.1804594E-2,-5.838895E-3],"split_indices":[2,0,0],"split_type":[0,0,0],"sum_hessian":[1.66975E1,1.0024941E0,1.5695005E1],"tree_param":{"num_deleted":"0","num_feature":"5","num_nodes":"3","size_leaf_vector":"0"}},{"base_weights":[2.8839637E-2,-2.715682E-1,5.7364315E-1,-5.418912E-3,9.1648296E-2,-4.093453E-3,1.0074432E0,4.8311627E-3,-2.3583798E-1,1.2801227E-2,8.803896E-4,-4.094345E-3,8.987323E-4],"categories":[],"categories_nodes":[],"categories_segments":[],"categories_sizes":[],"default_left":[0,0,0,0,0,0,0,0,0,0,0,0,0],"id":26,"left_children":[1,3,5,-1,7,-1,9,-1,11,-1,-1,-1,-1],"loss_changes":[3.3125803E0,1.3370292E0,3.4727428E0,0E0,9.408114E-1,0E0,1.2080822E0,0E0,2.7336442E-1,0E0,0E0,0E0,0E0],"parents":[2147483647,0,0,1,1,2,2,4,4,6,6,8,8],"right_children":[2,4,6,-1,8,-1,10,-1,12,-1,-1,-1,-1],"split_conditions":[2.0668557E-1,4.3067974E-1,-6.4918566E-1,-5.418912E-3,2.0581605E-2,-4.093453E-3,2.8574347E-1,4.8311627E-3,1.2186931E0,1.2801227E-2,8.803896E-4,-4.094345E-3,8.987323E-4],"split_indices":[4,0,0,0,1,0,1,0,2,0,0,0,0],"split_type":[0,0,0,0,0,0,0,0,0,0,0,0,0],"sum_hessian":[1.828837E1,1.211153E1,6.176839E0,6.6616726E0,5.4498577E0,1.908519E0,4.2683196E0,2.2659628E0,3.1838949E0,2.989381E0,1.2789388E0,1.9092572E0,1.2746376E0],"tree_param":{"num_deleted":"0","num_feature":"5","num_nodes":"13","size_leaf_vector":"0"}},{"base_weights":[1.0507532E-1,-1.8754134E-1,3.102656E-1,-5.2322787E-3,5.926597E-3,-4.9176705E-3,7.7671343E-1,1.2483605E-2,3.831636E-1,5.8698673E-3,1.06592454E-1,-3.5194373E-3,5.163352E-3],"categories":[],"categories_nodes":[],"categories_segments":[],"categories_sizes":[],"default_left":[0,0,0,0,0,0,0,0,0,0,0,0,0],"id":27,"left_children":[1,3,5,-1,-1,-1,7,-1,9,-1,11,-1,-1],"loss_changes":[1.1775684E0,2.4859352E0,4.622631E0,0E0,0E0,0E0,9.239793E-1,0E0,2.5092864E-1,0E0,8.546073E-1,0E0,0E0],"parents":[2147483647,0,0,1,1,2,2,6,6,8,8,10,10],"right_children":[2,4,6,-1,-1,-1,8,-1,10,-1,12,-1,-1],"split_conditions":[1.06417425E-1,-3.586089E-1,5.162547E-3,-5.2322787E-3,5.926597E-3,-4.9176705E-3,5.4828733E-1,1.2483605E-2,1.241161E0,5.8698673E-3,8.987459E-1,-3.5194373E-3,5.163352E-3],"split_indices":[0,3,3,0,0,0,3,0,2,0,0,0,0],"split_type":[0,0,0,0,0,0,0,0,0,0,0,0,0],"sum_hessian":[1.7643269E1,7.307805E0,1.0335464E1,5.3397226E0,1.9680824E0,3.7806144E0,6.5548496E0,1.9935914E0,4.561258E0,1.9798255E0,2.5814326E0,1.284751E0,1.2966814E0],"tree_param":{"num_deleted":"0","num_feature":"5","num_nodes":"13","size_leaf_vector":"0"}},{"base_weights":[-2.0051025E-2,-3.0010077E-1,6.620363E-1,-5.190873E-3,-1.2489646E-1,8.0917096E-1,7.958607E-4,-2.6634508E-1,2.7372062E-3,1.3641532E-2,-3.5185767E-3,9.482269E-4,-3.5685235E-1,8.5602066E-4,-4.9311896E-3],"categories":[],"categories_nodes":[],"categories_segments":[],"categories_sizes":[],"default_left":[0,0,0,0,0,0,0,0,0,0,0,0,0,0,0],"id":28,"left_children":[1,3,5,-1,7,9,-1,11,-1,-1,-1,-1,13,-1,-1],"loss_changes":[3.8699086E0,4.8432732E-1,4.4174337E-1,0E0,5.9548694E-1,3.4478097E0,0E0,2.7402073E-1,0E0,0E0,0E0,0E0,4.0910387E-1,0E0,0E0],"parents":[2147483647,0,0,1,1,2,2,4,4,5,5,7,7,12,12],"right_children":[2,4,6,-1,8,10,-1,12,-1,-1,-1,-1,14,-1,-1],"split_conditions":[6.8404317E-1,-7.91359E-1,1.9473101E0,-5.190873E-3,4.153903E-1,9.101779E-1,7.958607E-4,-3.529348E-1,2.7372062E-3,1.3641532E-2,-3.5185767E-3,9.482269E-4,-1.0602027E0,8.5602066E-4,-4.9311896E-3],"split_indices":[3,3,3,0,4,1,0,2,0,0,0,0,4,0,0],"split_type":[0,0,0,0,0,0,0,0,0,0,0,0,0,0,0],"sum_hessian":[1.8219255E1,1.3313185E1,4.9060698E0,5.0448775E0,8.268308E0,3.605914E0,1.3001556E0,6.3476734E0,1.9206344E0,2.3213403E0,1.2845738E0,1.2624012E0,5.0852723E0,1.2849324E0,3.8003397E0],"tree_param":{"num_deleted":"0","num_feature":"5","num_nodes":"15","size_leaf_vector":"0"}},{"base_weights":[1.4138052E-1,5.9255326E-1,-1.986059E-1,-4.12295E-3,9.8784405E-1,9.071015E-3,-5.5128844E-3,1.4323703E-2,1.8024101E-3],"categories":[],"categories_nodes":[],"categories_segments":[],"categories_sizes":[],"default_left":[0,0,0,0,0,0,0,0,0],"id":29,"left_children":[1,3,5,-1,7,-1,-1,-1,-1],"loss_changes":[2.8391087E0,3.5353496E0,4.737581E0,0E0,1.8765492E0,0E0,0E0,0E0,0E0],"parents":[2147483647,0,0,1,1,2,2,4,4],"right_children":[2,4,6,-1,8,-1,-1,-1,-1],"split_conditions":[1.2850419E-1,-6.105952E-1,-2.728184E-1,-4.12295E-3,9.284183E-2,9.071015E-3,-5.5128844E-3,1.4323703E-2,1.8024101E-3],"split_indices":[0,0,1,0,4,0,0,0,0],"split_type":[0,0,0,0,0,0,0,0,0],"sum_hessian":[1.6741562E1,6.875149E0,9.866412E0,1.9288647E0,4.9462843E0,2.0058367E0,7.8605757E0,2.6913087E0,2.2549756E0],"tree_param":{"num_deleted":"0","num_feature":"5","num_nodes":"9","size_leaf_vector":"0"}},{"base_weights":[-4.2313713E-1,1.1707632E-2,-5.844099E-3],"categories":[],"categories_nodes":[],"categories_segments":[],"categories_sizes":[],"default_left":[0,0,0],"id":30,"left_children":[1,-1,-1],"loss_changes":[5.38142E0,0E0,0E0],"parents":[2147483647,0,0],"right_children":[2,-1,-1],"split_conditions":[-1.6016924E0,1.1707632E-2,-5.844099E-3],"split_indices":[1,0,0],"split_type":[0,0,0],"sum_hessian":[1.7273352E1,1.0119972E0,1.6261354E1],"tree_param":{"num_deleted":"0","num_feature":"5","num_nodes":"3","size_leaf_vector":"0"}},{"base_weights":[-9.981534E-2,6.699577E-2,-5.0793886E-3,-3.5914567E-1,3.5657537E-1,-4.9449983E-3,8.1640657E-4,-4.0785447E-3,6.272751E-1,1.1808562E-2,-2.3429014E-3,-3.5043638E-3,2.68745E-3],"categories":[],"categories_nodes":[],"categories_segments":[],"categories_sizes":[],"default_left":[0,0,0,0,0,0,0,0,0,0,0,0,0],"id":31,"left_children":[1,3,-1,5,7,-1,-1,-1,9,-1,11,-1,-1],"loss_changes":[1.2804664E0,1.8408782E0,0E0,4.051479E-1,2.0697854E0,0E0,0E0,0E0,2.3964176E0,0E0,4.9155703E-1,0E0,0E0],"parents":[2147483647,0,0,1,1,3,3,4,4,8,8,10,10],"right_children":[2,4,-1,6,8,-1,-1,-1,10,-1,12,-1,-1],"split_conditions":[8.548804E-1,-1.1150419E-1,-5.0793886E-3,1.7173392E-1,-7.656754E-1,-4.9449983E-3,8.1640657E-4,-4.0785447E-3,5.162547E-3,1.1808562E-2,3.6220753E-1,-3.5043638E-3,2.68745E-3],"split_indices":[2,0,0,3,3,0,0,0,3,0,2,0,0],"split_type":[0,0,0,0,0,0,0,0,0,0,0,0,0],"sum_hessian":[1.7308537E1,1.2879983E1,4.4285526E0,5.1140237E0,7.7659597E0,3.8193426E0,1.2946811E0,1.8983989E0,5.867561E0,2.6564286E0,3.2111323E0,1.2777364E0,1.9333959E0],"tree_param":{"num_deleted":"0","num_feature":"5","num_nodes":"13","size_leaf_vector":"0"}},{"base_weights":[2.2312318E-1,-5.47777E-3,8.065451E-1,1.0533108E0,-3.843804E-3,1.2304118E0,2.593871E-3,1.4797007E-2,4.747173E-3],"categories":[],"categories_nodes":[],"categories_segments":[],"categories_sizes":[],"default_left":[0,0,0,0,0,0,0,0,0],"id":32,"left_children":[1,-1,3,5,-1,7,-1,-1,-1],"loss_changes":[8.712058E0,0E0,3.5997148E0,9.846287E-1,0E0,6.754837E-1,0E0,0E0,0E0],"parents":[2147483647,0,0,2,2,3,3,5,5],"right_children":[2,-1,4,6,-1,8,-1,-1,-1],"split_conditions":[-3.3778552E-2,-5.47777E-3,9.592596E-1,4.153903E-1,-3.843804E-3,9.001035E-1,2.593871E-3,1.4797007E-2,4.747173E-3],"split_indices":[2,0,0,4,0,2,0,0,0],"split_type":[0,0,0,0,0,0,0,0,0],"sum_hessian":[1.7388138E1,7.5168715E0,9.871266E0,8.272678E0,1.5985875E0,6.3143477E0,1.958331E0,4.0276403E0,2.2867076E0],"tree_param":{"num_deleted":"0","num_feature":"5","num_nodes":"9","size_leaf_vector":"0"}},{"base_weights":[-5.699744E-2,-2.558497E-1,1.1065275E-2,-5.3220373E-3,-2.1740427E-2,-2.5417784E-1,4.920472E-3,-4.256785E-2,-4.503789E-3,2.6996057E-3,-3.8109836E-3],"categories":[],"categories_nodes":[],"categories_segments":[],"categories_sizes":[],"default_left":[0,0,0,0,0,0,0,0,0,0,0],"id":33,"left_children":[1,3,-1,-1,5,7,-1,9,-1,-1,-1],"loss_changes":[4.2062497E0,9.7787166E-1,0E0,0E0,1.2383507E0,2.7468628E-1,0E0,5.799968E-1,0E0,0E0,0E0],"parents":[2147483647,0,0,1,1,4,4,5,5,7,7],"right_children":[2,4,-1,-1,6,8,-1,10,-1,-1,-1],"split_conditions":[9.0291107E-1,-3.6088336E-1,1.1065275E-2,-5.3220373E-3,4.153903E-1,4.045523E-1,4.920472E-3,6.7225486E-1,-4.503789E-3,2.6996057E-3,-3.8109836E-3],"split_indices":[0,1,0,0,4,0,0,1,0,0,0],"split_type":[0,0,0,0,0,0,0,0,0,0,0],"sum_hessian":[1.5956182E1,1.4293465E1,1.6627166E0,5.971317E0,8.322148E0,6.077827E0,2.244321E0,3.5095787E0,2.5682483E0,1.9301931E0,1.5793858E0],"tree_param":{"num_deleted":"0","num_feature":"5","num_nodes":"11","size_leaf_vector":"0"}},{"base_weights":[2.9481104E-1,1.3029976E0,-4.0452686E-1,8.3676307E-4,1.5228421E-2,8.4175606E-4,-4.708855E-1,-2.5838357E-1,-5.3636525E-3,-4.268536E-3,9.3381543E-4],"categories":[],"categories_nodes":[],"categories_segments":[],"categories_sizes":[],"default_left":[0,0,0,0,0,0,0,0,0,0,0],"id":34,"left_children":[1,3,5,-1,-1,-1,7,9,-1,-1,-1],"loss_changes":[1.3998852E1,2.0338125E0,4.3024123E-1,0E0,0E0,0E0,1.1082411E-2,3.0435824E-1,0E0,0E0,0E0],"parents":[2147483647,0,0,1,1,2,2,6,6,7,7],"right_children":[2,4,6,-1,-1,-1,8,10,-1,-1,-1],"split_conditions":[-5.5685896E-1,-1.2082653E0,-2.4219845E-1,8.3676307E-4,1.5228421E-2,8.4175606E-4,5.862667E-1,3.8458905E-1,-5.3636525E-3,-4.268536E-3,9.3381543E-4],"split_indices":[3,1,3,0,0,0,1,3,0,0,0],"split_type":[0,0,0,0,0,0,0,0,0,0,0],"sum_hessian":[1.8107162E1,7.0624847E0,1.1044678E1,1.2897539E0,5.772731E0,1.2883133E0,9.756364E0,3.4632065E0,6.2931576E0,2.1973655E0,1.265841E0],"tree_param":{"num_deleted":"0","num_feature":"5","num_nodes":"11","size_leaf_vector":"0"}},{"base_weights":[-3.720574E-1,1.3257382E-2,-5.835394E-3],"categories":[],"categories_nodes":[],"categories_segments":[],"categories_sizes":[],"default_left":[0,0,0],"id":35,"left_children":[1,-1,-1],"loss_changes":[7.4368353E0,0E0,0E0],"parents":[2147483647,0,0],"right_children":[2,-1,-1],"split_conditions":[-1.7132992E0,1.3257382E-2,-5.835394E-3],"split_indices":[2,0,0],"split_type":[0,0,0],"sum_hessian":[1.7557732E1,1.3611894E0,1.6196543E1],"tree_param":{"num_deleted":"0","num_feature":"5","num_nodes":"3","size_leaf_vector":"0"}},{"base_weights":[-2.1009637E-2,-3.638134E-1,7.4866E-1,-4.1645667E-1,9.0745866E-4,-3.4598839E-3,1.0931044E0,9.0921245E-4,-4.808243E-1,3.6708286E-3,1.3376029E-2,-2.5959814E-1,-5.4468126E-3,-4.280086E-3,9.327868E-4],"categories":[],"categories_nodes":[],"categories_segments":[],"categories_sizes":[],"default_left":[0,0,0,0,0,0,0,0,0,0,0,0,0,0,0],"id":36,"left_children":[1,3,5,7,-1,-1,9,-1,11,-1,-1,13,-1,-1,-1],"loss_changes":[5.3485208E0,3.724121E-1,2.7367973E0,4.588468E-1,0E0,0E0,3.9630604E-1,0E0,2.0200491E-2,0E0,0E0,3.0574065E-1,0E0,0E0,0E0],"parents":[2147483647,0,0,1,1,2,2,3,3,6,6,8,8,11,11],"right_children":[2,4,6,8,-1,-1,10,-1,12,-1,-1,14,-1,-1,-1],"split_conditions":[2.707447E-1,1.3791233E0,-1.7132992E0,-1.0557927E0,9.0745866E-4,-3.4598839E-3,-3.7632322E-1,9.0921245E-4,-2.9329234E-1,3.6708286E-3,1.3376029E-2,-4.4822562E-1,-5.4468126E-3,-4.280086E-3,9.327868E-4],"split_indices":[4,2,2,4,0,0,0,0,4,0,0,4,0,0,0],"split_type":[0,0,0,0,0,0,0,0,0,0,0,0,0,0,0],"sum_hessian":[1.823908E1,1.2983611E1,5.2554684E0,1.1711147E1,1.2724638E0,1.2568141E0,3.9986544E0,1.2720084E0,1.0439139E1,1.6375208E0,2.3611333E0,3.4729054E0,6.9662337E0,2.2067983E0,1.2661071E0],"tree_param":{"num_deleted":"0","num_feature":"5","num_nodes":"15","size_leaf_vector":"0"}},{"base_weights":[2.7906954E-1,-3.5070086E-1,1.4196169E0,-4.4572258E-1,-1.1181101E-1,1.6838465E-2,3.5082765E-3,-5.3102616E-3,-1.268812E-3,-4.5893486E-3,5.1448047E-3],"categories":[],"categories_nodes":[],"categories_segments":[],"categories_sizes":[],"default_left":[0,0,0,0,0,0,0,0,0,0,0],"id":37,"left_children":[1,3,5,7,9,-1,-1,-1,-1,-1,-1],"loss_changes":[1.4459063E1,2.5262225E-1,1.4178877E0,1.8278658E-1,1.3506356E0,0E0,0E0,0E0,0E0,0E0,0E0],"parents":[2147483647,0,0,1,1,2,2,3,3,4,4],"right_children":[2,4,6,8,10,-1,-1,-1,-1,-1,-1],"split_conditions":[7.485523E-1,2.0668557E-1,4.669655E-1,2.0603707E-1,1.8170917E-1,1.6838465E-2,3.5082765E-3,-5.3102616E-3,-1.268812E-3,-4.5893486E-3,5.1448047E-3],"split_indices":[1,4,0,1,1,0,0,0,0,0,0],"split_type":[0,0,0,0,0,0,0,0,0,0,0],"sum_hessian":[1.8436909E1,1.2324349E1,6.1125593E0,8.197767E0,4.126582E0,4.4395328E0,1.6730263E0,5.942428E0,2.255339E0,2.8269534E0,1.2996285E0],"tree_param":{"num_deleted":"0","num_feature":"5","num_nodes":"11","size_leaf_vector":"0"}},{"base_weights":[3.3601426E-2,-2.847943E-1,9.0199435E-1,-4.5732893E-3,1.2533937E-1,1.16709145E-2,8.2766137E-4,3.908084E-1,-3.478966E-3,8.73802E-4,5.2256687E-3],"categories":[],"categories_nodes":[],"categories_segments":[],"categories_sizes":[],"default_left":[0,0,0,0,0,0,0,0,0,0,0],"id":38,"left_children":[1,3,5,-1,7,-1,-1,9,-1,-1,-1],"loss_changes":[5.1353455E0,1.0246779E0,9.8354435E-1,0E0,7.431131E-1,0E0,0E0,9.6945405E-2,0E0,0E0,0E0],"parents":[2147483647,0,0,1,1,2,2,4,4,7,7],"right_children":[2,4,6,-1,8,-1,-1,10,-1,-1,-1],"split_conditions":[9.001035E-1,4.483751E-1,9.101779E-1,-4.5732893E-3,1.08994E0,1.16709145E-2,8.2766137E-4,-1.415879E-1,-3.478966E-3,8.73802E-4,5.2256687E-3],"split_indices":[2,4,1,0,4,0,0,2,0,0,0],"split_type":[0,0,0,0,0,0,0,0,0,0,0],"sum_hessian":[1.66441E1,1.267051E1,3.9735901E0,8.837631E0,3.8328795E0,2.6813114E0,1.2922789E0,2.5670385E0,1.2658412E0,1.2807554E0,1.286283E0],"tree_param":{"num_deleted":"0","num_feature":"5","num_nodes":"11","size_leaf_vector":"0"}},{"base_weights":[7.82018E-2,9.40527E-1,-4.7033196E-3,-3.497053E-3,1.305322E0,1.5873028E-2,5.5813146E-1,6.601938E-3,1.7748238E-3],"categories":[],"categories_nodes":[],"categories_segments":[],"categories_sizes":[],"default_left":[0,0,0,0,0,0,0,0,0],"id":39,"left_children":[1,3,-1,-1,5,-1,7,-1,-1],"loss_changes":[8.237622E0,3.629116E0,0E0,0E0,2.6577282E-1,0E0,9.306669E-4,0E0,0E0],"parents":[2147483647,0,0,1,1,4,4,6,6],"right_children":[2,4,-1,-1,6,-1,8,-1,-1],"split_conditions":[-5.777977E-1,-1.3144956E0,-4.7033196E-3,-3.497053E-3,-7.4320406E-1,1.5873028E-2,-7.6199114E-1,6.601938E-3,1.7748238E-3],"split_indices":[3,3,0,0,1,0,2,0,0],"split_type":[0,0,0,0,0,0,0,0,0],"sum_hessian":[1.5479965E1,5.74068E0,9.7392845E0,1.274457E0,4.4662232E0,2.4262314E0,2.0399919E0,1.0295517E0,1.0104401E0],"tree_param":{"num_deleted":"0","num_feature":"5","num_nodes":"9","size_leaf_vector":"0"}},{"base_weights":[-3.789034E-1,1.31353475E-2,-5.8392393E-3],"categories":[],"categories_nodes":[],"categories_segments":[],"categories_sizes":[],"default_left":[0,0,0],"id":40,"left_children":[1,-1,-1],"loss_changes":[7.4033175E0,0E0,0E0],"parents":[2147483647,0,0],"right_children":[2,-1,-1],"split_conditions":[-1.3144956E0,1.31353475E-2,-5.8392393E-3],"split_indices":[3,0,0],"split_type":[0,0,0],"sum_hessian":[1.812567E1,1.3742703E0,1.67514E1],"tree_param":{"num_deleted":"0","num_feature":"5","num_nodes":"3","size_leaf_vector":"0"}},{"base_weights":[1.0193993E-1,3.050434E-1,-4.9994616E-3,-3.2288638E-1,6.091231E-1,9.05212E-4,-4.7164024E-3,1.6251913E-1,1.2434412E-2,-4.1145682E-3,4.5361584E-1,6.494425E-1,4.283425E-5,9.363717E-3,7.8697514E-4],"categories":[],"categories_nodes":[],"categories_segments":[],"categories_sizes":[],"default_left":[0,0,0,0,0,0,0,0,0,0,0,0,0,0,0],"id":41,"left_children":[1,3,-1,5,7,-1,-1,9,-1,-1,11,13,-1,-1,-1],"loss_changes":[2.438891E0,2.9854422E0,0E0,3.759249E-1,2.6836815E0,0E0,0E0,1.3776389E0,0E0,0E0,4.5522916E-1,5.189049E-1,0E0,0E0,0E0],"parents":[2147483647,0,0,1,1,3,3,4,4,7,7,10,10,11,11],"right_children":[2,4,-1,6,8,-1,-1,10,-1,-1,12,14,-1,-1,-1],"split_conditions":[7.9302883E-1,-6.008018E-1,-4.9994616E-3,-1.060796E0,2.707447E-1,9.05212E-4,-4.7164024E-3,4.3067974E-1,1.2434412E-2,-4.1145682E-3,8.548804E-1,-6.882215E-1,4.283425E-5,9.363717E-3,7.8697514E-4],"split_indices":[1,2,0,2,4,0,0,0,0,0,2,4,0,0,0],"split_type":[0,0,0,0,0,0,0,0,0,0,0,0,0,0,0],"sum_hessian":[1.7703283E1,1.3605396E1,4.0978856E0,4.4187517E0,9.1866455E0,1.2728356E0,3.145916E0,6.128187E0,3.058458E0,1.9230002E0,4.205187E0,2.618605E0,1.5865822E0,1.3162677E0,1.3023372E0],"tree_param":{"num_deleted":"0","num_feature":"5","num_nodes":"15","size_leaf_vector":"0"}},{"base_weights":[2.8720838E-1,-5.4037888E-3,8.3534443E-1,1.1067233E-2,4.156304E-2,8.202797E-4,-9.536583E-5],"categories":[],"categories_nodes":[],"categories_segments":[],"categories_sizes":[],"default_left":[0,0,0,0,0,0,0],"id":42,"left_children":[1,-1,3,-1,5,-1,-1],"loss_changes":[8.690895E0,0E0,2.3923535E0,0E0,8.893861E-3,0E0,0E0],"parents":[2147483647,0,0,2,2,4,4],"right_children":[2,-1,4,-1,6,-1,-1],"split_conditions":[-3.3778552E-2,-5.4037888E-3,1.1716961E0,1.1067233E-2,1.6116561E0,8.202797E-4,-9.536583E-5],"split_indices":[2,0,2,0,3,0,0],"split_type":[0,0,0,0,0,0,0],"sum_hessian":[1.716345E1,6.8441544E0,1.0319296E1,7.3963733E0,2.9229226E0,1.2934251E0,1.6294974E0],"tree_param":{"num_deleted":"0","num_feature":"5","num_nodes":"7","size_leaf_vector":"0"}},{"base_weights":[-6.306078E-2,-3.847089E-1,9.979828E-1,-4.3469223E-1,9.264734E-4,1.3234341E-2,8.254289E-4,-5.393097E-3,-2.6790535E-1,5.286563E-2,-4.8479033E-3,8.8218483E-4,1.4560611E-5],"categories":[],"categories_nodes":[],"categories_segments":[],"categories_sizes":[],"default_left":[0,0,0,0,0,0,0,0,0,0,0,0,0],"id":43,"left_children":[1,3,5,7,-1,-1,-1,-1,9,11,-1,-1,-1],"loss_changes":[6.8354754E0,4.036131E-1,1.2838035E0,9.9108696E-2,0E0,0E0,0E0,0E0,5.382502E-1,6.9124578E-3,0E0,0E0,0E0],"parents":[2147483647,0,0,1,1,2,2,3,3,8,8,9,9],"right_children":[2,4,6,8,-1,-1,-1,-1,10,12,-1,-1,-1],"split_conditions":[9.001035E-1,1.1857966E0,9.101779E-1,-5.034115E-1,9.264734E-4,1.3234341E-2,8.254289E-4,-5.393097E-3,1.8170917E-1,-9.429394E-2,-4.8479033E-3,8.8218483E-4,1.4560611E-5],"split_indices":[2,1,1,3,0,0,0,0,1,2,0,0,0],"split_type":[0,0,0,0,0,0,0,0,0,0,0,0,0],"sum_hessian":[1.790381E1,1.4228087E1,3.6757236E0,1.2960397E1,1.26769E0,2.382892E0,1.2928317E0,6.5920134E0,6.3683834E0,2.8740056E0,3.494378E0,1.2786925E0,1.5953131E0],"tree_param":{"num_deleted":"0","num_feature":"5","num_nodes":"13","size_leaf_vector":"0"}},{"base_weights":[2.4219596E-1,1.140951E0,-4.7716857E-3,-3.490043E-3,1.4392955E0,4.8881224E-3,1.56693E-2],"categories":[],"categories_nodes":[],"categories_segments":[],"categories_sizes":[],"default_left":[0,0,0,0,0,0,0],"id":44,"left_children":[1,3,-1,-1,5,-1,-1],"loss_changes":[1.289749E1,4.4092484E0,0E0,0E0,1.46101E-1,0E0,0E0],"parents":[2147483647,0,0,1,1,4,4],"right_children":[2,4,-1,-1,6,-1,-1],"split_conditions":[-2.5945242E-2,-1.6016924E0,-4.7716857E-3,-3.490043E-3,-6.105952E-1,4.8881224E-3,1.56693E-2],"split_indices":[1,1,0,0,0,0,0],"split_type":[0,0,0,0,0,0,0],"sum_hessian":[1.8106638E1,7.7890944E0,1.0317543E1,1.2711368E0,6.5179577E0,1.343417E0,5.1745405E0],"tree_param":{"num_deleted":"0","num_feature":"5","num_nodes":"7","size_leaf_vector":"0"}},{"base_weights":[-3.652151E-1,1.30180605E-2,-5.809982E-3],"categories":[],"categories_nodes":[],"categories_segments":[],"categories_sizes":[],"default_left":[0,0,0],"id":45,"left_children":[1,-1,-1],"loss_changes":[7.2795963E0,0E0,0E0],"parents":[2147483647,0,0],"right_children":[2,-1,-1],"split_conditions":[-1.7132992E0,1.30180605E-2,-5.809982E-3],"split_indices":[2,0,0],"split_type":[0,0,0],"sum_hessian":[1.7134491E1,1.3869264E0,1.5747564E1],"tree_param":{"num_deleted":"0","num_feature":"5","num_nodes":"3","size_leaf_vector":"0"}},{"base_weights":[-1.273482E-1,-3.2298365E-1,2.718365E-1,-3.802861E-1,9.265236E-4,5.861179E-1,-3.8753739E-3,8.3979074E-4,-4.5194817E-3,-1.2302506E-3,1.3026539E-2],"categories":[],"categories_nodes":[],"categories_segments":[],"categories_sizes":[],"default_left":[0,0,0,0,0,0,0,0,0,0,0],"id":46,"left_children":[1,3,5,7,-1,9,-1,-1,-1,-1,-1],"loss_changes":[1.4403421E0,3.229432E-1,1.5201018E0,3.9768052E-1,0E0,2.5095086E0,0E0,0E0,0E0,0E0,0E0],"parents":[2147483647,0,0,1,1,2,2,3,3,5,5],"right_children":[2,4,6,8,-1,10,-1,-1,-1,-1,-1],"split_conditions":[2.707447E-1,1.6116561E0,5.162547E-3,-1.1256716E0,9.265236E-4,-5.4245156E-1,-3.8753739E-3,8.3979074E-4,-4.5194817E-3,-1.2302506E-3,1.3026539E-2],"split_indices":[4,3,3,4,0,2,0,0,0,0,0],"split_type":[0,0,0,0,0,0,0,0,0,0,0],"sum_hessian":[1.6319277E1,1.108E1,5.239278E0,9.8122635E0,1.2677362E0,3.6233552E0,1.6159229E0,1.2890749E0,8.523189E0,2.2373726E0,1.3859824E0],"tree_param":{"num_deleted":"0","num_feature":"5","num_nodes":"11","size_leaf_vector":"0"}},{"base_weights":[2.4915262E-1,-3.4344867E-1,1.5273274E-2,-5.4243603E-3,-8.988182E-3,7.35245E-3,-4.7673644E-3],"categories":[],"categories_nodes":[],"categories_segments":[],"categories_sizes":[],"default_left":[0,0,0,0,0,0,0],"id":47,"left_children":[1,3,-1,-1,5,-1,-1],"loss_changes":[1.4018339E1,8.5952437E-1,0E0,0E0,2.3910468E0,0E0,0E0],"parents":[2147483647,0,0,1,1,4,4],"right_children":[2,4,-1,-1,6,-1,-1],"split_conditions":[7.485523E-1,-3.3778552E-2,1.5273274E-2,-5.4243603E-3,2.0209885E-1,7.35245E-3,-4.7673644E-3],"split_indices":[1,2,0,0,3,0,0],"split_type":[0,0,0,0,0,0,0],"sum_hessian":[1.6814795E1,1.1988058E1,4.826736E0,7.1263866E0,4.8616714E0,1.6555878E0,3.2060835E0],"tree_param":{"num_deleted":"0","num_feature":"5","num_nodes":"7","size_leaf_vector":"0"}},{"base_weights":[9.530034E-4,-5.2566654E-3,2.6911435E-1,5.471042E-1,-1.707038E-1,-3.053147E-2,1.5146023E-2,-4.7169994E-3,3.6727323E-3,5.2728886E-3,-2.8759545E-1,8.6025306E-4,-4.4738944E-3],"categories":[],"categories_nodes":[],"categories_segments":[],"categories_sizes":[],"default_left":[0,0,0,0,0,0,0,0,0,0,0,0,0],"id":48,"left_children":[1,-1,3,5,7,9,-1,-1,-1,-1,11,-1,-1],"loss_changes":[2.7637513E0,0E0,1.6785733E0,4.618766E0,1.1097219E0,1.0268424E0,0E0,0E0,0E0,0E0,3.26555E-1,0E0,0E0],"parents":[2147483647,0,0,2,2,3,3,4,4,5,5,10,10],"right_children":[2,-1,4,6,8,10,-1,-1,-1,-1,12,-1,-1],"split_conditions":[-3.6088336E-1,-5.2566654E-3,7.485523E-1,8.0969965E-1,4.669655E-1,-7.799794E-2,1.5146023E-2,-4.7169994E-3,3.6727323E-3,5.2728886E-3,-1.0356862E-1,8.6025306E-4,-4.4738944E-3],"split_indices":[1,0,1,2,0,1,0,0,0,0,0,0,0],"split_type":[0,0,0,0,0,0,0,0,0,0,0,0,0],"sum_hessian":[1.756894E1,5.603815E0,1.1965123E1,7.1818542E0,4.783269E0,5.103375E0,2.0784793E0,3.1461864E0,1.6370828E0,1.2783029E0,3.8250723E0,1.2841647E0,2.5409076E0],"tree_param":{"num_deleted":"0","num_feature":"5","num_nodes":"13","size_leaf_vector":"0"}},{"base_weights":[2.2180855E-1,1.3847828E-2,-5.633256E-3],"categories":[],"categories_nodes":[],"categories_segments":[],"categories_sizes":[],"default_left":[0,0,0],"id":49,"left_children":[1,-1,-1],"loss_changes":[1.6482635E1,0E0,0E0],"parents":[2147483647,0,0],"right_children":[2,-1,-1],"split_conditions":[-5.5685896E-1,1.3847828E-2,-5.633256E-3],"split_indices":[3,0,0],"split_type":[0,0,0],"sum_hessian":[1.6197142E1,6.2200236E0,9.977118E0],"tree_param":{"num_deleted":"0","num_feature":"5","num_nodes":"3","size_leaf_vector":"0"}},{"base_weights":[-3.7608215E-1,1.2930211E-2,-5.8198664E-3],"categories":[],"categories_nodes":[],"categories_segments":[],"categories_sizes":[],"default_left":[0,0,0],"id":50,"left_children":[1,-1,-1],"loss_changes":[7.28104E0,0E0,0E0],"parents":[2147483647,0,0],"right_children":[2,-1,-1],"split_conditions":[-1.3144956E0,1.2930211E-2,-5.8198664E-3],"split_indices":[3,0,0],"split_type":[0,0,0],"sum_hessian":[1.799615E1,1.3964593E0,1.6599691E1],"tree_param":{"num_deleted":"0","num_feature":"5","num_nodes":"3","size_leaf_vector":"0"}},{"base_weights":[-2.258814E-3,-2.8129226E-1,3.2250565E-1,-5.9963185E-2,-5.0287535E-3,8.9463264E-1,-1.6583624E-1,-3.2030252E-1,6.6190856E-3,-6.458063E-6,1.4190492E-2,-2.5932533E-1,9.117943E-4,-4.571337E-3,5.4968714E-5,-4.076073E-3,8.292133E-5],"categories":[],"categories_nodes":[],"categories_segments":[],"categories_sizes":[],"default_left":[0,0,0,0,0,0,0,0,0,0,0,0,0,0,0,0,0],"id":51,"left_children":[1,3,5,7,-1,9,11,13,-1,-1,-1,15,-1,-1,-1,-1,-1],"loss_changes":[1.7797337E0,4.876967E-1,2.6850462E0,1.4181545E0,0E0,2.037293E0,1.6161263E-1,2.4283075E-1,0E0,0E0,0E0,1.807831E-1,0E0,0E0,0E0,0E0,0E0],"parents":[2147483647,0,0,1,1,2,2,3,3,5,5,6,6,7,7,11,11],"right_children":[2,4,6,8,-1,10,12,14,-1,-1,-1,16,-1,-1,-1,-1,-1],"split_conditions":[2.5961646E-1,-3.119056E-1,1.1371452E-1,-5.514642E-1,-5.0287535E-3,-5.5685896E-1,1.8982153E0,-9.308092E-1,6.6190856E-3,-6.458063E-6,1.4190492E-2,7.8156E-1,9.117943E-4,-4.571337E-3,5.4968714E-5,-4.076073E-3,8.292133E-5],"split_indices":[0,2,2,2,0,3,3,1,0,0,0,1,0,0,0,0,0],"split_type":[0,0,0,0,0,0,0,0,0,0,0,0,0,0,0,0,0],"sum_hessian":[1.7638409E1,9.559159E0,8.079249E0,5.417992E0,4.1411676E0,3.33734E0,4.7419095E0,4.390772E0,1.0272204E0,1.6017015E0,1.7356386E0,3.4705248E0,1.2713847E0,2.8082376E0,1.5825343E0,1.8965719E0,1.5739529E0],"tree_param":{"num_deleted":"0","num_feature":"5","num_nodes":"17","size_leaf_vector":"0"}},{"base_weights":[2.2814399E-1,-5.388003E-3,7.316091E-1,1.1226597E0,5.9653386E-2,1.4118163E-2,2.4699075E-3,6.7341593E-3,-2.4510784E-1,8.079632E-4,-4.1570384E-3],"categories":[],"categories_nodes":[],"categories_segments":[],"categories_sizes":[],"default_left":[0,0,0,0,0,0,0,0,0,0,0],"id":52,"left_children":[1,-1,3,5,7,-1,-1,-1,9,-1,-1],"loss_changes":[7.4310017E0,0E0,2.9353952E0,1.4658928E0,1.1488332E0,0E0,0E0,0E0,2.6973963E-1,0E0,0E0],"parents":[2147483647,0,0,2,2,3,3,4,4,8,8],"right_children":[2,-1,4,6,8,-1,-1,-1,10,-1,-1],"split_conditions":[-6.38704E-2,-5.388003E-3,9.001035E-1,4.153903E-1,3.199483E-1,1.4118163E-2,2.4699075E-3,6.7341593E-3,-1.1174041E0,8.079632E-4,-4.1570384E-3],"split_indices":[3,0,2,4,0,0,0,0,4,0,0],"split_type":[0,0,0,0,0,0,0,0,0,0,0],"sum_hessian":[1.7223953E1,6.7980647E0,1.0425889E1,6.166504E0,4.2593856E0,4.1754475E0,1.9910566E0,1.0118854E0,3.2475E0,1.2966969E0,1.9508032E0],"tree_param":{"num_deleted":"0","num_feature":"5","num_nodes":"11","size_leaf_vector":"0"}},{"base_weights":[-7.119616E-2,-4.4785202E-1,1.0682808E-2,-5.0384235E-3,9.0161536E-4],"categories":[],"categories_nodes":[],"categories_segments":[],"categories_sizes":[],"default_left":[0,0,0,0,0],"id":53,"left_children":[1,3,-1,-1,-1],"loss_changes":[8.71341E0,5.0104976E-1,0E0,0E0,0E0],"parents":[2147483647,0,0,1,1],"right_children":[2,4,-1,-1,-1],"split_conditions":[8.911092E-1,6.8404317E-1,1.0682808E-2,-5.0384235E-3,9.0161536E-4],"split_indices":[2,3,0,0,0],"split_type":[0,0,0,0,0],"sum_hessian":[1.8187225E1,1.4125114E1,4.062111E0,1.2851219E1,1.2738953E0],"tree_param":{"num_deleted":"0","num_feature":"5","num_nodes":"5","size_leaf_vector":"0"}},{"base_weights":[1.3805693E-1,1.0989164E0,-4.1555223E-1,-3.5035205E-3,1.4675258E-2,-1.6290699E-1,-5.4220716E-3,2.7739953E-3,-4.568497E-3],"categories":[],"categories_nodes":[],"categories_segments":[],"categories_sizes":[],"default_left":[0,0,0,0,0,0,0,0,0],"id":54,"left_children":[1,3,5,-1,-1,7,-1,-1,-1],"loss_changes":[1.0608707E1,4.387642E0,3.223462E-1,0E0,0E0,8.6639667E-1,0E0,0E0,0E0],"parents":[2147483647,0,0,1,1,2,2,5,5],"right_children":[2,4,6,-1,-1,8,-1,-1,-1],"split_conditions":[-5.777977E-1,-9.198822E-1,2.0361832E-1,-3.5035205E-3,1.4675258E-2,5.862667E-1,-5.4220716E-3,2.7739953E-3,-4.568497E-3],"split_indices":[3,0,0,0,0,1,0,0,0],"split_type":[0,0,0,0,0,0,0,0,0],"sum_hessian":[1.808493E1,6.2508235E0,1.1834107E1,1.2775172E0,4.973306E0,4.715026E0,7.119082E0,1.9101017E0,2.804924E0],"tree_param":{"num_deleted":"0","num_feature":"5","num_nodes":"9","size_leaf_vector":"0"}},{"base_weights":[-3.5851532E-1,1.2806997E-2,-5.7863425E-3],"categories":[],"categories_nodes":[],"categories_segments":[],"categories_sizes":[],"default_left":[0,0,0],"id":55,"left_children":[1,-1,-1],"loss_changes":[7.137577E0,0E0,0E0],"parents":[2147483647,0,0],"right_children":[2,-1,-1],"split_conditions":[-1.7132992E0,1.2806997E-2,-5.7863425E-3],"split_indices":[2,0,0],"split_type":[0,0,0],"sum_hessian":[1.6727621E1,1.4099054E0,1.5317716E1],"tree_param":{"num_deleted":"0","num_feature":"5","num_nodes":"3","size_leaf_vector":"0"}},{"base_weights":[8.4571E-2,-1.7030428E-1,5.7085246E-1,-4.7032433E-3,-1.8459285E-2,8.728317E-1,-3.50291E-3,7.2488384E-3,-2.7715012E-1,8.965151E-4,1.1132629E-2,1.1861496E-1,-4.9839886E-3,-3.4581753E-3,5.260772E-3],"categories":[],"categories_nodes":[],"categories_segments":[],"categories_sizes":[],"default_left":[0,0,0,0,0,0,0,0,0,0,0,0,0,0,0],"id":56,"left_children":[1,3,5,-1,7,9,-1,-1,11,-1,-1,13,-1,-1,-1],"loss_changes":[2.296452E0,5.5678326E-1,2.0670388E0,0E0,1.985826E0,8.520405E-1,0E0,0E0,7.2540206E-1,0E0,0E0,8.5112786E-1,0E0,0E0,0E0],"parents":[2147483647,0,0,1,1,2,2,4,4,5,5,8,8,11,11],"right_children":[2,4,6,-1,8,10,-1,-1,12,-1,-1,14,-1,-1,-1],"split_conditions":[2.707447E-1,-6.2100756E-1,2.8574347E-1,-4.7032433E-3,-6.38704E-2,-8.684211E-1,-3.50291E-3,7.2488384E-3,-7.045004E-1,8.965151E-4,1.1132629E-2,5.592303E-1,-4.9839886E-3,-3.4581753E-3,5.260772E-3],"split_indices":[4,1,1,0,3,3,0,0,4,0,0,1,0,0,0],"split_type":[0,0,0,0,0,0,0,0,0,0,0,0,0,0,0],"sum_hessian":[1.674418E1,1.1412379E1,5.331802E0,3.130212E0,8.282167E0,4.054921E0,1.2768807E0,1.6729252E0,6.6092424E0,1.2749097E0,2.7800114E0,2.5362806E0,4.072962E0,1.2559811E0,1.2802995E0],"tree_param":{"num_deleted":"0","num_feature":"5","num_nodes":"15","size_leaf_vector":"0"}},{"base_weights":[2.837034E-1,-5.485658E-3,9.892675E-1,2.436529E-1,1.4881023E-2,6.262336E-1,-3.8731627E-3,9.103327E-3,6.954132E-4],"categories":[],"categories_nodes":[],"categories_segments":[],"categories_sizes":[],"default_left":[0,0,0,0,0,0,0,0,0],"id":57,"left_children":[1,-1,3,5,-1,7,-1,-1,-1],"loss_changes":[1.1234755E1,0E0,3.4352093E0,1.5192412E0,0E0,5.178498E-1,0E0,0E0,0E0],"parents":[2147483647,0,0,2,2,3,3,5,5],"right_children":[2,-1,4,6,-1,8,-1,-1,-1],"split_conditions":[-4.4206824E-2,-5.485658E-3,7.9302883E-1,8.454018E-1,1.4881023E-2,2.0209885E-1,-3.8731627E-3,9.103327E-3,6.954132E-4],"split_indices":[2,0,1,2,0,3,0,0,0],"split_type":[0,0,0,0,0,0,0,0,0],"sum_hessian":[1.720798E1,7.9971814E0,9.210798E0,4.288768E0,4.9220304E0,2.6745758E0,1.6141921E0,1.350246E0,1.3243297E0],"tree_param":{"num_deleted":"0","num_feature":"5","num_nodes":"9","size_leaf_vector":"0"}},{"base_weights":[-1.2190872E-1,-2.933208E-1,8.750785E-3,-3.8288555E-1,2.7015198E-3,-4.289124E-3,9.3319904E-5],"categories":[],"categories_nodes":[],"categories_segments":[],"categories_sizes":[],"default_left":[0,0,0,0,0,0,0],"id":58,"left_children":[1,3,-1,5,-1,-1,-1],"loss_changes":[3.5289338E0,9.6579874E-1,0E0,2.77637E-1,0E0,0E0,0E0],"parents":[2147483647,0,0,1,1,3,3],"right_children":[2,4,-1,6,-1,-1,-1],"split_conditions":[9.0291107E-1,1.1857966E0,8.750785E-3,6.1622757E-1,2.7015198E-3,-4.289124E-3,9.3319904E-5],"split_indices":[0,1,0,4,0,0,0],"split_type":[0,0,0,0,0,0,0],"sum_hessian":[1.8147675E1,1.6087536E1,2.0601385E0,1.4157649E1,1.9298867E0,1.2587002E1,1.5706477E0],"tree_param":{"num_deleted":"0","num_feature":"5","num_nodes":"7","size_leaf_vector":"0"}},{"base_weights":[2.9672047E-1,1.2119073E0,-5.5618775E-3,1.6098265E-2,-3.8403715E-3],"categories":[],"categories_nodes":[],"categories_segments":[],"categories_sizes":[],"default_left":[0,0,0,0,0],"id":59,"left_children":[1,3,-1,-1,-1],"loss_changes":[1.4672233E1,6.311757E0,0E0,0E0,0E0],"parents":[2147483647,0,0,1,1],"right_children":[2,4,-1,-1,-1],"split_conditions":[-2.5945242E-2,5.068374E-1,-5.5618775E-3,1.6098265E-2,-3.8403715E-3],"split_indices":[1,4,0,0,0],"split_type":[0,0,0,0,0],"sum_hessian":[1.6933279E1,7.9653716E0,8.967907E0,6.3687444E0,1.5966274E0],"tree_param":{"num_deleted":"0","num_feature":"5","num_nodes":"5","size_leaf_vector":"0"}},{"base_weights":[-3.7778175E-1,1.2703224E-2,-5.8099446E-3],"categories":[],"categories_nodes":[],"categories_segments":[],"categories_sizes":[],"default_left":[0,0,0],"id":60,"left_children":[1,-1,-1],"loss_changes":[7.1682825E0,0E0,0E0],"parents":[2147483647,0,0],"right_children":[2,-1,-1],"split_conditions":[-1.3144956E0,1.2703224E-2,-5.8099446E-3],"split_indices":[3,0,0],"split_type":[0,0,0],"sum_hessian":[1.8199553E1,1.4212972E0,1.6778254E1],"tree_param":{"num_deleted":"0","num_feature":"5","num_nodes":"3","size_leaf_vector":"0"}},{"base_weights":[-7.2229676E-2,6.620351E-2,-3.6462557E-1,-9.876235E-2,9.280709E-3,-4.971571E-3,9.040128E-4,-3.2100457E-1,3.1255093E-1,6.434014E-5,-3.9510448E-3,6.338618E-1,-3.4613356E-3,-2.2292816E-6,1.1278717E-2],"categories":[],"categories_nodes":[],"categories_segments":[],"categories_sizes":[],"default_left":[0,0,0,0,0,0,0,0,0,0,0,0,0,0,0],"id":61,"left_children":[1,3,5,7,-1,-1,-1,9,11,-1,-1,13,-1,-1,-1],"loss_changes":[8.018044E-1,2.0658698E0,4.2649275E-1,1.2483158E0,0E0,0E0,0E0,2.1233314E-1,1.25899E0,0E0,0E0,1.1450673E0,0E0,0E0,0E0],"parents":[2147483647,0,0,1,1,2,2,3,3,7,7,8,8,11,11],"right_children":[2,4,6,8,-1,-1,-1,10,12,-1,-1,14,-1,-1,-1],"split_conditions":[6.8404317E-1,3.061616E-1,1.3791233E0,2.0361832E-1,9.280709E-3,-4.971571E-3,9.040128E-4,-1.060796E0,1.1371452E-1,6.434014E-5,-3.9510448E-3,-5.5685896E-1,-3.4613356E-3,-2.2292816E-6,1.1278717E-2],"split_indices":[3,3,2,0,0,0,0,2,2,0,0,3,0,0,0],"split_type":[0,0,0,0,0,0,0,0,0,0,0,0,0,0,0],"sum_hessian":[1.8212372E1,1.2885425E1,5.326948E0,1.155848E1,1.326944E0,4.0536814E0,1.273267E0,7.6464734E0,3.9120069E0,1.5795972E0,6.066876E0,2.6547077E0,1.2572993E0,1.600255E0,1.0544527E0],"tree_param":{"num_deleted":"0","num_feature":"5","num_nodes":"15","size_leaf_vector":"0"}},{"base_weights":[1.4770919E-1,-4.7217497E-1,1.20648425E-2,-5.4888856E-3,-7.9279003E-4],"categories":[],"categories_nodes":[],"categories_segments":[],"categories_sizes":[],"default_left":[0,0,0,0,0],"id":62,"left_children":[1,3,-1,-1,-1],"loss_changes":[1.1232922E1,2.8701043E-1,0E0,0E0,0E0],"parents":[2147483647,0,0,1,1],"right_children":[2,4,-1,-1,-1],"split_conditions":[7.1364427E-1,2.8574347E-1,1.20648425E-2,-5.4888856E-3,-7.9279003E-4],"split_indices":[1,1,0,0,0],"split_type":[0,0,0,0,0],"sum_hessian":[1.524708E1,9.966185E0,5.2808948E0,8.005973E0,1.960212E0],"tree_param":{"num_deleted":"0","num_feature":"5","num_nodes":"5","size_leaf_vector":"0"}},{"base_weights":[-1.036059E-1,-4.422591E-3,9.6916217E-1,1.2896423E-2,4.499752E-3],"categories":[],"categories_nodes":[],"categories_segments":[],"categories_sizes":[],"default_left":[0,0,0,0,0],"id":63,"left_children":[1,-1,3,-1,-1],"loss_changes":[7.143433E0,0E0,2.0972776E-1,0E0,0E0],"parents":[2147483647,0,0,2,2],"right_children":[2,-1,4,-1,-1],"split_conditions":[9.001035E-1,-4.422591E-3,8.1455857E-1,1.2896423E-2,4.499752E-3],"split_indices":[2,0,3,0,0],"split_type":[0,0,0,0,0],"sum_hessian":[1.7483015E1,1.3734899E1,3.748116E0,1.3999803E0,2.3481357E0],"tree_param":{"num_deleted":"0","num_feature":"5","num_nodes":"5","size_leaf_vector":"0"}},{"base_weights":[2.0074314E-1,9.386477E-1,-4.6467587E-1,1.3860315E0,-1.682873E-1,-1.9335392E-1,-5.376315E-3,4.652886E-3,1.5380127E-2,-3.487233E-3,8.451089E-4,-3.7646592E-3,1.005371E-3],"categories":[],"categories_nodes":[],"categories_segments":[],"categories_sizes":[],"default_left":[0,0,0,0,0,0,0,0,0,0,0,0,0],"id":64,"left_children":[1,3,5,7,9,11,-1,-1,-1,-1,-1,-1,-1],"loss_changes":[9.676888E0,4.8165007E0,1.0517001E-1,2.218504E-1,1.9165519E-1,2.4236639E-1,0E0,0E0,0E0,0E0,0E0,0E0,0E0],"parents":[2147483647,0,0,1,1,2,2,3,3,4,4,5,5],"right_children":[2,4,6,8,10,12,-1,-1,-1,-1,-1,-1,-1],"split_conditions":[-3.3778552E-2,1.9682486E-1,5.862667E-1,-2.9329234E-1,-1.3144956E0,3.8458905E-1,-5.376315E-3,4.652886E-3,1.5380127E-2,-3.487233E-3,8.451089E-4,-3.7646592E-3,1.005371E-3],"split_indices":[2,4,1,4,3,3,0,0,0,0,0,0,0],"split_type":[0,0,0,0,0,0,0,0,0,0,0,0,0],"sum_hessian":[1.7819605E1,8.254886E0,9.564719E0,5.699297E0,2.5555882E0,2.8003852E0,6.7643337E0,1.3828866E0,4.3164105E0,1.269805E0,1.2857833E0,1.5522611E0,1.2481241E0],"tree_param":{"num_deleted":"0","num_feature":"5","num_nodes":"13","size_leaf_vector":"0"}},{"base_weights":[-3.3694023E-1,1.259239E-2,-5.738152E-3],"categories":[],"categories_nodes":[],"categories_segments":[],"categories_sizes":[],"default_left":[0,0,0],"id":65,"left_children":[1,-1,-1],"loss_changes":[6.9268837E0,0E0,0E0],"parents":[2147483647,0,0],"right_children":[2,-1,-1],"split_conditions":[-1.3144956E0,1.259239E-2,-5.738152E-3],"split_indices":[3,0,0],"split_type":[0,0,0],"sum_hessian":[1.5409407E1,1.4335302E0,1.3975876E1],"tree_param":{"num_deleted":"0","num_feature":"5","num_nodes":"3","size_leaf_vector":"0"}},{"base_weights":[-2.0340178E-2,1.9617772E-1,-5.1003885E-3,-5.041119E-3,6.125971E-1,2.892552E-1,1.0164418E-2,-4.457814E-3,9.255224E-1,1.3486256E-2,8.6639385E-4],"categories":[],"categories_nodes":[],"categories_segments":[],"categories_sizes":[],"default_left":[0,0,0,0,0,0,0,0,0,0,0],"id":66,"left_children":[1,3,-1,-1,5,7,-1,-1,9,-1,-1],"loss_changes":[1.9635134E0,4.073249E0,0E0,0E0,8.220086E-1,3.2860837E0,0E0,0E0,1.1674612E0,0E0,0E0],"parents":[2147483647,0,0,1,1,4,4,5,5,8,8],"right_children":[2,4,-1,-1,6,8,-1,-1,10,-1,-1],"split_conditions":[7.9302883E-1,-6.2100756E-1,-5.1003885E-3,-5.041119E-3,2.707447E-1,4.3067974E-1,1.0164418E-2,-4.457814E-3,8.987459E-1,1.3486256E-2,8.6639385E-4],"split_indices":[1,1,0,0,4,0,0,0,0,0,0],"split_type":[0,0,0,0,0,0,0,0,0,0,0],"sum_hessian":[1.6575037E1,1.1908945E1,4.6660914E0,4.362303E0,7.546642E0,5.144169E0,2.402473E0,2.5257363E0,2.6184328E0,1.3366358E0,1.2817969E0],"tree_param":{"num_deleted":"0","num_feature":"5","num_nodes":"11","size_leaf_vector":"0"}},{"base_weights":[1.7127623E-1,-4.1722137E-1,1.3340075E0,-4.6716473E-1,-1.2512452E-3,1.4866751E-2,4.5962087E-3,-5.417249E-3,-1.3799876E-3],"categories":[],"categories_nodes":[],"categories_segments":[],"categories_sizes":[],"default_left":[0,0,0,0,0,0,0,0,0],"id":67,"left_children":[1,3,5,7,-1,-1,-1,-1,-1],"loss_changes":[1.3039979E1,1.2936425E-1,1.6688728E-1,1.8610358E-1,0E0,0E0,0E0,0E0,0E0],"parents":[2147483647,0,0,1,1,2,2,3,3],"right_children":[2,4,6,8,-1,-1,-1,-1,-1],"split_conditions":[7.9302883E-1,6.27943E-1,4.669655E-1,-2.4219845E-1,-1.2512452E-3,1.4866751E-2,4.5962087E-3,-5.417249E-3,-1.3799876E-3],"split_indices":[1,0,0,3,0,0,0,0,0],"split_type":[0,0,0,0,0,0,0,0,0],"sum_hessian":[1.7243532E1,1.1874578E1,5.368954E0,9.628865E0,2.2457135E0,3.97472E0,1.394234E0,7.3241124E0,2.3047526E0],"tree_param":{"num_deleted":"0","num_feature":"5","num_nodes":"9","size_leaf_vector":"0"}},{"base_weights":[6.7736514E-2,-2.9224858E-1,1.0455981E0,-5.133998E-3,-1.1732763E-1,1.7927042E-3,1.213928E-2,2.3202574E-1,-4.9014217E-3,5.3878045E-3,9.300729E-3,-6.247853E-4,9.734258E-4],"categories":[],"categories_nodes":[],"categories_segments":[],"categories_sizes":[],"default_left":[0,0,0,0,0,0,0,0,0,0,0,0,0],"id":68,"left_children":[1,3,5,-1,7,-1,-1,9,-1,-1,11,-1,-1],"loss_changes":[6.719401E0,4.8517585E-1,5.291867E-1,0E0,1.3078876E0,0E0,0E0,3.6474493E-1,0E0,0E0,3.2327E-2,0E0,0E0],"parents":[2147483647,0,0,1,1,2,2,4,4,7,7,10,10],"right_children":[2,4,6,-1,8,-1,-1,10,-1,-1,12,-1,-1],"split_conditions":[8.911092E-1,-7.91359E-1,3.199483E-1,-5.133998E-3,1.894846E-1,1.7927042E-3,1.213928E-2,-4.4633618E-1,-4.9014217E-3,5.3878045E-3,5.234471E-1,-6.247853E-4,9.734258E-4],"split_indices":[2,3,0,0,0,0,0,3,0,0,2,0,0],"split_type":[0,0,0,0,0,0,0,0,0,0,0,0,0],"sum_hessian":[1.722029E1,1.3099163E1,4.1211257E0,4.9305134E0,8.16865E0,1.0064292E0,3.1146965E0,4.4119663E0,3.7566838E0,1.2589715E0,3.1529946E0,1.8968633E0,1.2561313E0],"tree_param":{"num_deleted":"0","num_feature":"5","num_nodes":"13","size_leaf_vector":"0"}},{"base_weights":[2.1354814E-1,1.1727607E0,-4.767673E-3,-3.4793809E-3,1.5083412E-2],"categories":[],"categories_nodes":[],"categories_segments":[],"categories_sizes":[],"default_left":[0,0,0,0,0],"id":69,"left_children":[1,3,-1,-1,-1],"loss_changes":[1.2823408E1,4.627862E0,0E0,0E0,0E0],"parents":[2147483647,0,0,1,1],"right_children":[2,4,-1,-1,-1],"split_conditions":[-2.5945242E-2,-1.7132992E0,-4.767673E-3,-3.4793809E-3,1.5083412E-2],"split_indices":[1,2,0,0,0],"split_type":[0,0,0,0,0],"sum_hessian":[1.7521639E1,7.0402036E0,1.0481435E1,1.2660799E0,5.7741237E0],"tree_param":{"num_deleted":"0","num_feature":"5","num_nodes":"5","size_leaf_vector":"0"}},{"base_weights":[-4.138158E-1,-5.774286E-3,1.0977763E-2],"categories":[],"categories_nodes":[],"categories_segments":[],"categories_sizes":[],"default_left":[0,0,0],"id":70,"left_children":[1,-1,-1],"loss_changes":[5.0408955E0,0E0,0E0],"parents":[2147483647,0,0],"right_children":[2,-1,-1],"split_conditions":[1.1258544E0,-5.774286E-3,1.0977763E-2],"split_indices":[4,0,0],"split_type":[0,0,0],"sum_hessian":[1.6819347E1,1.5734288E1,1.08506E0],"tree_param":{"num_deleted":"0","num_feature":"5","num_nodes":"3","size_leaf_vector":"0"}},{"base_weights":[2.5322791E-2,2.1809006E-1,-3.7660077E-1,-3.0595508E-1,8.5813963E-1,-1.1618488E-3,-4.8004664E-3,-5.0402796E-3,4.347293E-2,1.411299E-2,-1.2349173E-3,5.225907E-3,-3.897623E-3],"categories":[],"categories_nodes":[],"categories_segments":[],"categories_sizes":[],"default_left":[0,0,0,0,0,0,0,0,0,0,0,0,0],"id":71,"left_children":[1,3,5,7,9,-1,-1,-1,11,-1,-1,-1,-1],"loss_changes":[1.5811208E0,4.860832E0,1.2304962E-1,5.9463334E-1,3.6681361E0,0E0,0E0,0E0,1.0161694E0,0E0,0E0,0E0,0E0],"parents":[2147483647,0,0,1,1,2,2,3,3,4,4,8,8],"right_children":[2,4,6,8,10,-1,-1,-1,12,-1,-1,-1,-1],"split_conditions":[5.234471E-1,-2.728184E-1,-7.045004E-1,-6.2100756E-1,2.8574347E-1,-1.1618488E-3,-4.8004664E-3,-5.0402796E-3,-4.000597E-1,1.411299E-2,-1.2349173E-3,5.225907E-3,-3.897623E-3],"split_indices":[2,1,4,1,1,0,0,0,1,0,0,0,0],"split_type":[0,0,0,0,0,0,0,0,0,0,0,0,0],"sum_hessian":[1.8347343E1,1.2709231E1,5.6381125E0,7.2748656E0,5.4343657E0,2.2065256E0,3.431587E0,4.360617E0,2.9142485E0,3.1957946E0,2.2385714E0,1.2859054E0,1.6283431E0],"tree_param":{"num_deleted":"0","num_feature":"5","num_nodes":"13","size_leaf_vector":"0"}},{"base_weights":[2.0559256E-1,-3.5791892E-1,1.2726835E-2,-5.5810884E-3,2.1724886E-1,-7.784966E-4,4.9874E-3],"categories":[],"categories_nodes":[],"categories_segments":[],"categories_sizes":[],"default_left":[0,0,0,0,0,0,0],"id":72,"left_children":[1,3,-1,-1,5,-1,-1],"loss_changes":[1.241013E1,1.7091506E0,0E0,0E0,3.943927E-1,0E0,0E0],"parents":[2147483647,0,0,1,1,4,4],"right_children":[2,4,-1,-1,6,-1,-1],"split_conditions":[7.1364427E-1,2.0603707E-1,1.2726835E-2,-5.5810884E-3,1.8608767E-1,-7.784966E-4,4.9874E-3],"split_indices":[1,1,0,0,4,0,0],"split_type":[0,0,0,0,0,0,0],"sum_hessian":[1.8880682E1,1.2790718E1,6.089963E0,9.510279E0,3.2804396E0,1.9546938E0,1.3257458E0],"tree_param":{"num_deleted":"0","num_feature":"5","num_nodes":"7","size_leaf_vector":"0"}},{"base_weights":[-5.229352E-2,-4.3251508E-1,9.280595E-1,-4.8235934E-3,-1.1085768E-3,1.1952401E0,6.041442E-4,1.7843372E-3,1.4645694E-2],"categories":[],"categories_nodes":[],"categories_segments":[],"categories_sizes":[],"default_left":[0,0,0,0,0,0,0,0,0],"id":73,"left_children":[1,3,5,-1,-1,7,-1,-1,-1],"loss_changes":[7.3118687E0,1.7163205E-1,1.2025018E0,0E0,0E0,8.754215E-1,0E0,0E0,0E0],"parents":[2147483647,0,0,1,1,2,2,5,5],"right_children":[2,4,6,-1,-1,8,-1,-1,-1],"split_conditions":[9.001035E-1,6.5152305E-1,1.3791233E0,-4.8235934E-3,-1.1085768E-3,3.199483E-1,6.041442E-4,1.7843372E-3,1.4645694E-2],"split_indices":[2,4,2,0,0,0,0,0,0],"split_type":[0,0,0,0,0,0,0,0,0],"sum_hessian":[1.7539083E1,1.3040323E1,4.498761E0,1.0858134E1,2.182189E0,3.1509094E0,1.3478518E0,1.0079769E0,2.1429324E0],"tree_param":{"num_deleted":"0","num_feature":"5","num_nodes":"9","size_leaf_vector":"0"}},{"base_weights":[2.940079E-1,1.3000048E0,-4.7734585E-1,-3.4737298E-3,1.6346358E-2,7.480495E-4,-5.55768E-3],"categories":[],"categories_nodes":[],"categories_segments":[],"categories_sizes":[],"default_left":[0,0,0,0,0,0,0],"id":74,"left_children":[1,3,5,-1,-1,-1,-1],"loss_changes":[1.5376215E1,5.2652206E0,5.3929114E-1,0E0,0E0,0E0,0E0],"parents":[2147483647,0,0,1,1,2,2],"right_children":[2,4,6,-1,-1,-1,-1],"split_conditions":[-5.5685896E-1,-1.6016924E0,2.0581605E-2,-3.4737298E-3,1.6346358E-2,7.480495E-4,-5.55768E-3],"split_indices":[3,1,1,0,0,0,0],"split_type":[0,0,0,0,0,0,0],"sum_hessian":[1.8015532E1,7.5211368E0,1.0494395E1,1.2633969E0,6.2577395E0,1.3108873E0,9.183508E0],"tree_param":{"num_deleted":"0","num_feature":"5","num_nodes":"7","size_leaf_vector":"0"}},{"base_weights":[-4.1921142E-1,1.0895191E-2,-5.778347E-3],"categories":[],"categories_nodes":[],"categories_segments":[],"categories_sizes":[],"default_left":[0,0,0],"id":75,"left_children":[1,-1,-1],"loss_changes":[5.0240955E0,0E0,0E0],"parents":[2147483647,0,0],"right_children":[2,-1,-1],"split_conditions":[-1.6016924E0,1.0895191E-2,-5.778347E-3],"split_indices":[1,0,0],"split_type":[0,0,0],"sum_hessian":[1.7362593E1,1.0934789E0,1.6269114E1],"tree_param":{"num_deleted":"0","num_feature":"5","num_nodes":"3","size_leaf_vector":"0"}},{"base_weights":[4.9202427E-2,2.3296984E-1,-4.955976E-3,-1.260405E-1,7.193213E-1,-5.032158E-3,3.087803E-1,3.14067E-1,1.2350789E-2,9.108045E-3,-1.7281467E-1,6.431559E-1,-3.4973435E-3,-3.806492E-3,1.8074609E-3,1.9382884E-5,1.1432559E-2],"categories":[],"categories_nodes":[],"categories_segments":[],"categories_sizes":[],"default_left":[0,0,0,0,0,0,0,0,0,0,0,0,0,0,0,0,0],"id":76,"left_children":[1,3,-1,5,7,-1,9,11,-1,-1,13,15,-1,-1,-1,-1,-1],"loss_changes":[1.9845037E0,2.6469026E0,0E0,1.6762897E0,9.427819E-1,0E0,1.5859977E0,1.2966859E0,0E0,0E0,3.317201E-1,1.1625596E0,0E0,0E0,0E0,0E0,0E0],"parents":[2147483647,0,0,1,1,3,3,4,4,6,6,7,7,10,10,11,11],"right_children":[2,4,-1,6,8,-1,10,12,-1,-1,14,16,-1,-1,-1,-1,-1],"split_conditions":[8.548804E-1,1.2850419E-1,-4.955976E-3,2.0668557E-1,2.6301116E-2,-5.032158E-3,6.1622757E-1,-2.9329234E-1,1.2350789E-2,9.108045E-3,-6.4918566E-1,5.741166E-1,-3.4973435E-3,-3.806492E-3,1.8074609E-3,1.9382884E-5,1.1432559E-2],"split_indices":[2,0,0,4,4,0,4,4,0,0,0,0,0,0,0,0,0],"split_type":[0,0,0,0,0,0,0,0,0,0,0,0,0,0,0,0,0],"sum_hessian":[1.7668697E1,1.3640105E1,4.0285916E0,8.273613E0,5.3664927E0,4.3462577E0,3.9273553E0,3.9061751E0,1.4603175E0,1.3493531E0,2.5780022E0,2.6322849E0,1.2738904E0,1.5753462E0,1.002656E0,1.5932848E0,1.039E0],"tree_param":{"num_deleted":"0","num_feature":"5","num_nodes":"17","size_leaf_vector":"0"}},{"base_weights":[1.07730485E-1,-5.000004E-1,1.254682E0,-5.612928E-3,-1.6734368E-1,1.49566345E-2,3.2086584E-3,8.5693767E-4,-3.483364E-3],"categories":[],"categories_nodes":[],"categories_segments":[],"categories_sizes":[],"default_left":[0,0,0,0,0,0,0,0,0],"id":77,"left_children":[1,3,5,-1,7,-1,-1,-1,-1],"loss_changes":[1.4439285E1,1.847384E-1,1.1286049E0,0E0,1.9248816E-1,0E0,0E0,0E0,0E0],"parents":[2147483647,0,0,1,1,2,2,4,4],"right_children":[2,4,6,-1,8,-1,-1,-1,-1],"split_conditions":[7.485523E-1,6.27943E-1,4.3067974E-1,-5.612928E-3,7.8734577E-1,1.49566345E-2,3.2086584E-3,8.5693767E-4,-3.483364E-3],"split_indices":[1,0,0,0,3,0,0,0,0],"split_type":[0,0,0,0,0,0,0,0,0],"sum_hessian":[1.8815199E1,1.2667291E1,6.147908E0,1.0116085E1,2.551206E0,4.4085617E0,1.7393465E0,1.2834331E0,1.2677729E0],"tree_param":{"num_deleted":"0","num_feature":"5","num_nodes":"9","size_leaf_vector":"0"}},{"base_weights":[-1.10290505E-1,-5.163229E-3,8.33453E-2,5.328594E-3,-6.482458E-3,-3.2493776E-1,6.304542E-1,-5.214159E-3,1.15490235E-1,-3.5422618E-4,1.0614288E-2,-3.480215E-3,5.2527785E-3],"categories":[],"categories_nodes":[],"categories_segments":[],"categories_sizes":[],"default_left":[0,0,0,0,0,0,0,0,0,0,0,0,0],"id":78,"left_children":[1,-1,3,-1,5,7,9,-1,11,-1,-1,-1,-1],"loss_changes":[1.5165242E0,0E0,5.506158E-1,0E0,2.696048E0,8.258642E-1,1.3100305E0,0E0,8.567455E-1,0E0,0E0,0E0,0E0],"parents":[2147483647,0,0,2,2,4,4,5,5,6,6,8,8],"right_children":[2,-1,4,-1,6,8,10,-1,12,-1,-1,-1,-1],"split_conditions":[-4.000597E-1,-5.163229E-3,-7.799794E-2,5.328594E-3,9.001035E-1,4.153903E-1,-6.3316196E-1,-5.214159E-3,-1.2661443E-3,-3.5422618E-4,1.0614288E-2,-3.480215E-3,5.2527785E-3],"split_indices":[1,0,1,0,2,4,4,0,2,0,0,0,0],"split_type":[0,0,0,0,0,0,0,0,0,0,0,0,0],"sum_hessian":[1.7741364E1,5.1906643E0,1.2550699E1,1.2688975E0,1.1281801E1,7.8478694E0,3.4339318E0,5.2997346E0,2.5481348E0,1.7098846E0,1.7240471E0,1.2664158E0,1.2817189E0],"tree_param":{"num_deleted":"0","num_feature":"5","num_nodes":"13","size_leaf_vector":"0"}},{"base_weights":[1.7349909E-1,1.0305879E0,-4.698668E-3,1.5443074E-2,-4.1159005E-3],"categories":[],"categories_nodes":[],"categories_segments":[],"categories_sizes":[],"default_left":[0,0,0,0,0],"id":79,"left_children":[1,3,-1,-1,-1],"loss_changes":[1.0509281E1,6.64303E0,0E0,0E0,0E0],"parents":[2147483647,0,0,1,1],"right_children":[2,4,-1,-1,-1],"split_conditions":[-3.3778552E-2,1.9682486E-1,-4.698668E-3,1.5443074E-2,-4.1159005E-3],"split_indices":[2,4,0,0,0],"split_type":[0,0,0,0,0],"sum_hessian":[1.7180353E1,7.108533E0,1.0071821E1,5.1892495E0,1.9192832E0],"tree_param":{"num_deleted":"0","num_feature":"5","num_nodes":"5","size_leaf_vector":"0"}},{"base_weights":[-3.926378E-1,1.08087445E-2,-5.7189227E-3],"categories":[],"categories_nodes":[],"categories_segments":[],"categories_sizes":[],"default_left":[0,0,0],"id":80,"left_children":[1,-1,-1],"loss_changes":[4.8953886E0,0E0,0E0],"parents":[2147483647,0,0],"right_children":[2,-1,-1],"split_conditions":[-1.6016924E0,1.08087445E-2,-5.7189227E-3],"split_indices":[1,0,0],"split_type":[0,0,0],"sum_hessian":[1.5193484E1,1.1023216E0,1.4091163E1],"tree_param":{"num_deleted":"0","num_feature":"5","num_nodes":"3","size_leaf_vector":"0"}},{"base_weights":[1.7242799E-2,-5.0965766E-3,2.6812902E-1,5.823372E-1,-4.6715722E-3,-1.421099E-4,7.2291267E-1,1.3521531E-2,2.4889246E-1,-2.1718417E-1,9.342472E-3,1.7492181E-3,-4.1270526E-3],"categories":[],"categories_nodes":[],"categories_segments":[],"categories_sizes":[],"default_left":[0,0,0,0,0,0,0,0,0,0,0,0,0],"id":81,"left_children":[1,-1,3,5,-1,-1,7,-1,9,11,-1,-1,-1],"loss_changes":[2.3142521E0,0E0,3.0016177E0,7.4175E-1,0E0,0E0,1.7747526E0,0E0,1.8839679E0,3.7454742E-1,0E0,0E0,0E0],"parents":[2147483647,0,0,2,2,3,3,6,6,8,8,9,9],"right_children":[2,-1,4,6,-1,-1,8,-1,10,12,-1,-1,-1],"split_conditions":[-7.656754E-1,-5.0965766E-3,7.9302883E-1,-2.728184E-1,-4.6715722E-3,-1.421099E-4,1.4669484E-1,1.3521531E-2,5.862667E-1,1.7173392E-1,9.342472E-3,1.7492181E-3,-4.1270526E-3],"split_indices":[3,0,1,1,0,0,1,0,1,3,0,0,0],"split_type":[0,0,0,0,0,0,0,0,0,0,0,0,0],"sum_hessian":[1.5472984E1,4.65833E0,1.0814654E1,7.7225904E0,3.092064E0,1.6441898E0,6.0784006E0,1.8156655E0,4.2627354E0,2.9438632E0,1.3188721E0,1.0145663E0,1.9292969E0],"tree_param":{"num_deleted":"0","num_feature":"5","num_nodes":"13","size_leaf_vector":"0"}},{"base_weights":[1.1503182E-1,-5.4139732E-3,6.265935E-1,1.0493757E0,-2.51753E-1,1.3080339E-2,5.957435E-1,-2.2725649E-4,-3.8876815E-3,-3.149373E-4,9.818835E-3],"categories":[],"categories_nodes":[],"categories_segments":[],"categories_sizes":[],"default_left":[0,0,0,0,0,0,0,0,0,0,0],"id":82,"left_children":[1,-1,3,5,7,-1,9,-1,-1,-1,-1],"loss_changes":[6.4677734E0,0E0,4.245236E0,9.2614174E-2,1.257855E-1,0E0,1.1292266E0,0E0,0E0,0E0,0E0],"parents":[2147483647,0,0,2,2,3,3,4,4,6,6],"right_children":[2,-1,4,6,8,-1,10,-1,-1,-1,-1],"split_conditions":[-2.4219845E-1,-5.4139732E-3,9.001035E-1,2.2236925E-1,1.241161E0,1.3080339E-2,6.8404317E-1,-2.2725649E-4,-3.8876815E-3,-3.149373E-4,9.818835E-3],"split_indices":[3,0,2,3,2,0,3,0,0,0,0],"split_type":[0,0,0,0,0,0,0,0,0,0,0],"sum_hessian":[1.7250341E1,7.529834E0,9.720507E0,6.430527E0,3.2899797E0,2.8958588E0,3.5346684E0,1.6678879E0,1.6220917E0,1.6968248E0,1.8378437E0],"tree_param":{"num_deleted":"0","num_feature":"5","num_nodes":"11","size_leaf_vector":"0"}},{"base_weights":[7.79471E-2,-2.5905225E-1,7.7069277E-1,-4.9927714E-3,-8.012042E-2,1.0519979E0,-3.2217856E-3,5.3930376E-3,-2.6132557E-1,2.580099E-3,1.4653719E-2,-4.5687393E-3,-3.6464717E-2,5.0363564E-3,-4.2163874E-3],"categories":[],"categories_nodes":[],"categories_segments":[],"categories_sizes":[],"default_left":[0,0,0,0,0,0,0,0,0,0,0,0,0,0,0],"id":83,"left_children":[1,3,5,-1,7,9,-1,-1,11,-1,-1,-1,13,-1,-1],"loss_changes":[4.3862753E0,5.107424E-1,2.2205653E0,0E0,1.0988551E0,1.296485E0,0E0,0E0,3.0329183E-1,0E0,0E0,0E0,1.1425215E0,0E0,0E0],"parents":[2147483647,0,0,1,1,2,2,4,4,5,5,8,8,12,12],"right_children":[2,4,6,-1,8,10,-1,-1,12,-1,-1,-1,14,-1,-1],"split_conditions":[6.8404317E-1,-5.7817453E-1,1.95319E0,-4.9927714E-3,-2.856021E-1,3.241551E-1,-3.2217856E-3,5.3930376E-3,1.2660731E-1,2.580099E-3,1.4653719E-2,-4.5687393E-3,5.592303E-1,5.0363564E-3,-4.2163874E-3],"split_indices":[3,2,3,0,2,0,0,0,2,0,0,0,1,0,0],"split_type":[0,0,0,0,0,0,0,0,0,0,0,0,0,0,0],"sum_hessian":[1.6933344E1,1.1812821E1,5.120522E0,4.2784576E0,7.5343637E0,4.102053E0,1.0184687E0,1.2579689E0,6.276395E0,1.9605273E0,2.141526E0,2.8051298E0,3.4712653E0,1.3169928E0,2.1542726E0],"tree_param":{"num_deleted":"0","num_feature":"5","num_nodes":"15","size_leaf_vector":"0"}},{"base_weights":[2.5937396E-1,9.2080015E-1,-4.562259E-1,-3.460882E-3,1.1287782E0,-1.5355831E-1,-5.3414074E-3,1.4914036E-2,3.974087E-1,-3.4095445E-3,1.0099079E-3,2.3617825E-4,5.678027E-3],"categories":[],"categories_nodes":[],"categories_segments":[],"categories_sizes":[],"default_left":[0,0,0,0,0,0,0,0,0,0,0,0,0],"id":84,"left_children":[1,3,5,-1,7,9,-1,-1,11,-1,-1,-1,-1],"loss_changes":[9.754668E0,3.1783447E0,1.5713978E-1,0E0,1.8798265E0,2.0042111E-1,0E0,0E0,2.7023923E-1,0E0,0E0,0E0,0E0],"parents":[2147483647,0,0,1,1,2,2,4,4,5,5,8,8],"right_children":[2,4,6,-1,8,10,-1,-1,12,-1,-1,-1,-1],"split_conditions":[-3.3778552E-2,-1.7132992E0,8.407122E-2,-3.460882E-3,-6.008018E-1,2.56959E-1,-5.3414074E-3,1.4914036E-2,-4.7223485E-1,-3.4095445E-3,1.0099079E-3,2.3617825E-4,5.678027E-3],"split_indices":[2,2,0,0,2,2,0,0,2,0,0,0,0],"split_type":[0,0,0,0,0,0,0,0,0,0,0,0,0],"sum_hessian":[1.8721636E1,9.580066E0,9.14157E0,1.2572889E0,8.322777E0,2.4797187E0,6.6618514E0,4.869301E0,3.4534757E0,1.2327428E0,1.2469759E0,1.4378631E0,2.0156126E0],"tree_param":{"num_deleted":"0","num_feature":"5","num_nodes":"13","size_leaf_vector":"0"}},{"base_weights":[-3.598676E-1,1.2163341E-2,-5.7475083E-3],"categories":[],"categories_nodes":[],"categories_segments":[],"categories_sizes":[],"default_left":[0,0,0],"id":85,"left_children":[1,-1,-1],"loss_changes":[6.7987146E0,0E0,0E0],"parents":[2147483647,0,0],"right_children":[2,-1,-1],"split_conditions":[-9.198822E-1,1.2163341E-2,-5.7475083E-3],"split_indices":[0,0,0],"split_type":[0,0,0],"sum_hessian":[1.7008966E1,1.4814994E0,1.5527468E1],"tree_param":{"num_deleted":"0","num_feature":"5","num_nodes":"3","size_leaf_vector":"0"}},{"base_weights":[1.8372128E-2,-2.6455706E-1,6.177298E-1,1.6792022E-1,-4.4642448E-1,9.95816E-3,9.042243E-4,5.7604806E-3,-3.769704E-3,-1.5355563E-1,-5.293974E-3,-3.3854353E-3,9.642225E-4],"categories":[],"categories_nodes":[],"categories_segments":[],"categories_sizes":[],"default_left":[0,0,0,0,0,0,0,0,0,0,0,0,0],"id":86,"left_children":[1,3,5,7,9,-1,-1,-1,-1,11,-1,-1,-1],"loss_changes":[3.2174428E0,1.0923145E0,1.1211481E0,1.2302848E0,1.4661539E-1,0E0,0E0,0E0,0E0,1.9352613E-1,0E0,0E0,0E0],"parents":[2147483647,0,0,1,1,2,2,3,3,4,4,9,9],"right_children":[2,4,6,8,10,-1,-1,-1,-1,12,-1,-1,-1],"split_conditions":[2.707447E-1,-6.882215E-1,6.1622757E-1,8.548804E-1,-5.7817453E-1,9.95816E-3,9.042243E-4,5.7604806E-3,-3.769704E-3,-9.661638E-1,-5.293974E-3,-3.3854353E-3,9.642225E-4],"split_indices":[4,4,4,2,2,0,0,0,0,3,0,0,0],"split_type":[0,0,0,0,0,0,0,0,0,0,0,0,0],"sum_hessian":[1.7009754E1,1.1934585E1,5.0751696E0,3.5557551E0,8.378829E0,2.438349E0,2.6368206E0,2.000318E0,1.5554368E0,2.479087E0,5.899742E0,1.2211335E0,1.2579536E0],"tree_param":{"num_deleted":"0","num_feature":"5","num_nodes":"13","size_leaf_vector":"0"}},{"base_weights":[2.3254293E-1,-5.3544603E-3,8.1596106E-1,-2.64738E-1,1.4404048E-2,8.0525276E-4,-4.2908583E-3],"categories":[],"categories_nodes":[],"categories_segments":[],"categories_sizes":[],"default_left":[0,0,0,0,0,0,0],"id":87,"left_children":[1,-1,3,5,-1,-1,-1],"loss_changes":[8.020706E0,0E0,7.1398215E0,2.9059842E-1,0E0,0E0,0E0],"parents":[2147483647,0,0,2,2,3,3],"right_children":[2,-1,4,6,-1,-1,-1],"split_conditions":[-6.38704E-2,-5.3544603E-3,7.485523E-1,1.8081559E-1,1.4404048E-2,8.0525276E-4,-4.2908583E-3],"split_indices":[3,0,1,0,0,0,0],"split_type":[0,0,0,0,0,0,0],"sum_hessian":[1.5925916E1,6.9109006E0,9.015016E0,3.5123606E0,5.5026546E0,1.2972077E0,2.2151527E0],"tree_param":{"num_deleted":"0","num_feature":"5","num_nodes":"7","size_leaf_vector":"0"}},{"base_weights":[-5.9275843E-2,-3.757471E-1,9.2249125E-1,-4.832866E-3,5.9720453E-2,1.4218512E-2,-2.1925193E-4,4.379252E-5,9.666117E-4],"categories":[],"categories_nodes":[],"categories_segments":[],"categories_sizes":[],"default_left":[0,0,0,0,0,0,0,0,0],"id":88,"left_children":[1,3,5,-1,7,-1,-1,-1,-1],"loss_changes":[6.182589E0,7.273314E-1,2.3270402E0,0E0,7.4348534E-3,0E0,0E0,0E0,0E0],"parents":[2147483647,0,0,1,1,2,2,4,4],"right_children":[2,4,6,-1,8,-1,-1,-1,-1],"split_conditions":[8.911092E-1,2.2236925E-1,6.7225486E-1,-4.832866E-3,8.630966E-1,1.4218512E-2,-2.1925193E-4,4.379252E-5,9.666117E-4],"split_indices":[2,3,1,0,1,0,0,0,0],"split_type":[0,0,0,0,0,0,0,0,0],"sum_hessian":[1.7783216E1,1.3915007E1,3.8682086E0,1.1071155E1,2.8438525E0,2.1996236E0,1.6685851E0,1.5861605E0,1.257692E0],"tree_param":{"num_deleted":"0","num_feature":"5","num_nodes":"9","size_leaf_vector":"0"}},{"base_weights":[2.6490352E-1,1.1785113E0,-5.55592E-3,6.997042E-4,1.358567E0,1.4905838E-2,4.4910973E-3],"categories":[],"categories_nodes":[],"categories_segments":[],"categories_sizes":[],"default_left":[0,0,0,0,0,0,0],"id":89,"left_children":[1,3,-1,-1,5,-1,-1],"loss_changes":[1.4491317E1,1.7121086E0,0E0,0E0,2.5920582E-1,0E0,0E0],"parents":[2147483647,0,0,1,1,4,4],"right_children":[2,4,-1,-1,6,-1,-1],"split_conditions":[-2.5945242E-2,-1.2907193E0,-5.55592E-3,6.997042E-4,-3.3912957E-1,1.4905838E-2,4.4910973E-3],"split_indices":[1,1,0,0,1,0,0],"split_type":[0,0,0,0,0,0,0],"sum_hessian":[1.7458302E1,8.053986E0,9.404316E0,1.3194144E0,6.7345715E0,5.3229146E0,1.4116566E0],"tree_param":{"num_deleted":"0","num_feature":"5","num_nodes":"7","size_leaf_vector":"0"}},{"base_weights":[-4.6200934E-1,6.4310073E-3,-5.734178E-3],"categories":[],"categories_nodes":[],"categories_segments":[],"categories_sizes":[],"default_left":[0,0,0],"id":90,"left_children":[1,-1,-1],"loss_changes":[2.4898136E0,0E0,0E0],"parents":[2147483647,0,0],"right_children":[2,-1,-1],"split_conditions":[-1.2832249E0,6.4310073E-3,-5.734178E-3],"split_indices":[3,0,0],"split_type":[0,0,0],"sum_hessian":[1.622768E1,1.0490663E0,1.5178614E1],"tree_param":{"num_deleted":"0","num_feature":"5","num_nodes":"3","size_leaf_vector":"0"}},{"base_weights":[-3.030588E-2,-3.007191E-1,4.7867212E-1,-5.496906E-3,9.7202554E-2,-4.0491405E-3,8.309865E-1,3.22235E-1,-3.7354098E-3,1.1553738E0,-8.3453524E-5,7.6236012E-3,-3.7640699E-3,1.7844216E-3,1.4057853E-2],"categories":[],"categories_nodes":[],"categories_segments":[],"categories_sizes":[],"default_left":[0,0,0,0,0,0,0,0,0,0,0,0,0,0,0],"id":91,"left_children":[1,3,5,-1,7,-1,9,11,-1,13,-1,-1,-1,-1,-1],"loss_changes":[3.057276E0,1.4837502E0,2.7427907E0,0E0,7.9899925E-1,0E0,1.6034956E0,1.7847944E0,0E0,7.837944E-1,0E0,0E0,0E0,0E0,0E0],"parents":[2147483647,0,0,1,1,2,2,4,4,6,6,7,7,9,9],"right_children":[2,4,6,-1,8,-1,10,12,-1,14,-1,-1,-1,-1,-1],"split_conditions":[2.707447E-1,4.3067974E-1,-6.4918566E-1,-5.496906E-3,7.9302883E-1,-4.0491405E-3,2.8574347E-1,8.987459E-1,-3.7354098E-3,-3.7632322E-1,-8.3453524E-5,7.6236012E-3,-3.7640699E-3,1.7844216E-3,1.4057853E-2],"split_indices":[4,0,0,0,1,0,1,0,0,0,0,0,0,0,0],"split_type":[0,0,0,0,0,0,0,0,0,0,0,0,0,0,0],"sum_hessian":[2.0167168E1,1.3437286E1,6.7298803E0,8.03103E0,5.406257E0,1.8759065E0,4.853974E0,3.871173E0,1.535084E0,3.2293468E0,1.6246272E0,2.3190393E0,1.5521338E0,1.008291E0,2.2210557E0],"tree_param":{"num_deleted":"0","num_feature":"5","num_nodes":"15","size_leaf_vector":"0"}},{"base_weights":[3.2799706E-1,-5.3979508E-3,9.7510785E-1,1.2635644E-2,5.044467E-1,-3.232674E-3,7.4907494E-1,9.762745E-3,7.986982E-4],"categories":[],"categories_nodes":[],"categories_segments":[],"categories_sizes":[],"default_left":[0,0,0,0,0,0,0,0,0],"id":92,"left_children":[1,-1,3,-1,5,-1,7,-1,-1],"loss_changes":[1.0819946E1,0E0,8.3655643E-1,0E0,1.41451E0,0E0,6.473565E-1,0E0,0E0],"parents":[2147483647,0,0,2,2,4,4,6,6],"right_children":[2,-1,4,-1,6,-1,8,-1,-1],"split_conditions":[-6.38704E-2,-5.3979508E-3,7.491099E-1,1.2635644E-2,1.2661052E-1,-3.232674E-3,9.0291107E-1,9.762745E-3,7.986982E-4],"split_indices":[3,0,2,0,0,0,0,0,0],"split_type":[0,0,0,0,0,0,0,0,0],"sum_hessian":[1.733042E1,7.4737573E0,9.856663E0,5.066731E0,4.789932E0,1.01937E0,3.7705617E0,2.4723315E0,1.2982302E0],"tree_param":{"num_deleted":"0","num_feature":"5","num_nodes":"9","size_leaf_vector":"0"}},{"base_weights":[7.721227E-2,-1.17953345E-1,8.303465E-3,-3.178771E-1,5.08138E-1,-5.029113E-3,-1.4005162E-1,8.161205E-4,6.793413E-3,3.8281323E-3,-3.4564146E-1,1.0442343E-3,-4.864229E-3],"categories":[],"categories_nodes":[],"categories_segments":[],"categories_sizes":[],"default_left":[0,0,0,0,0,0,0,0,0,0,0,0,0],"id":93,"left_children":[1,3,-1,5,7,-1,9,-1,-1,-1,11,-1,-1],"loss_changes":[2.734375E0,2.0542028E0,0E0,3.269198E-1,2.3990333E-1,0E0,9.4326675E-1,0E0,0E0,0E0,4.271829E-1,0E0,0E0],"parents":[2147483647,0,0,1,1,3,3,4,4,6,6,10,10],"right_children":[2,4,-1,6,8,-1,10,-1,-1,-1,12,-1,-1],"split_conditions":[9.0291107E-1,8.260065E-1,8.303465E-3,-5.514642E-1,1.241161E0,-5.029113E-3,-3.7632322E-1,8.161205E-4,6.793413E-3,3.8281323E-3,-3.345324E-1,1.0442343E-3,-4.864229E-3],"split_indices":[0,3,0,2,2,0,0,0,0,0,3,0,0],"split_type":[0,0,0,0,0,0,0,0,0,0,0,0,0],"sum_hessian":[1.6936636E1,1.4120789E1,2.8158476E0,1.1076211E1,3.0445774E0,4.5321836E0,6.5440273E0,1.2949963E0,1.7495812E0,1.6036168E0,4.94041E0,1.2386909E0,3.7017195E0],"tree_param":{"num_deleted":"0","num_feature":"5","num_nodes":"13","size_leaf_vector":"0"}},{"base_weights":[1.867391E-1,1.096397E0,-4.1417384E-1,-3.4543707E-3,1.4006054E-2,-1.2478107E-1,-4.6321732E-1,1.7950727E-3,-3.4179245E-3,-1.0748889E-3,-5.411016E-3],"categories":[],"categories_nodes":[],"categories_segments":[],"categories_sizes":[],"default_left":[0,0,0,0,0,0,0,0,0,0,0],"id":94,"left_children":[1,3,5,-1,-1,7,9,-1,-1,-1,-1],"loss_changes":[1.1529261E1,4.13931E0,1.2566805E-1,0E0,0E0,2.7543387E-1,2.3786998E-1,0E0,0E0,0E0,0E0],"parents":[2147483647,0,0,1,1,2,2,5,5,6,6],"right_children":[2,4,6,-1,-1,8,10,-1,-1,-1,-1],"split_conditions":[-5.5685896E-1,-1.7132992E0,-4.4206824E-2,-3.4543707E-3,1.4006054E-2,2.0581605E-2,8.407122E-2,1.7950727E-3,-3.4179245E-3,-1.0748889E-3,-5.411016E-3],"split_indices":[3,2,2,0,0,1,0,0,0,0,0],"split_type":[0,0,0,0,0,0,0,0,0,0,0],"sum_hessian":[1.9260979E1,7.3341064E0,1.1926872E1,1.2541894E0,6.079917E0,2.2419586E0,9.684914E0,1.0052464E0,1.2367122E0,2.1670842E0,7.51783E0],"tree_param":{"num_deleted":"0","num_feature":"5","num_nodes":"11","size_leaf_vector":"0"}},{"base_weights":[-3.9715445E-1,1.0585259E-2,-5.709978E-3],"categories":[],"categories_nodes":[],"categories_segments":[],"categories_sizes":[],"default_left":[0,0,0],"id":95,"left_children":[1,-1,-1],"loss_changes":[4.814594E0,0E0,0E0],"parents":[2147483647,0,0],"right_children":[2,-1,-1],"split_conditions":[-2.1852703E0,1.0585259E-2,-5.709978E-3],"split_indices":[1,0,0],"split_type":[0,0,0],"sum_hessian":[1.5637055E1,1.1253073E0,1.4511748E1],"tree_param":{"num_deleted":"0","num_feature":"5","num_nodes":"3","size_leaf_vector":"0"}},{"base_weights":[-5.5292223E-2,1.2972179E-1,-5.06925E-3,-3.0096987E-1,6.3025177E-1,-5.0136405E-3,5.1004905E-2,1.305275E-2,1.0765061E-1,5.218708E-3,-3.838569E-3,-1.8061246E-1,5.146685E-3,1.7039421E-3,-3.8433396E-3],"categories":[],"categories_nodes":[],"categories_segments":[],"categories_sizes":[],"default_left":[0,0,0,0,0,0,0,0,0,0,0,0,0,0,0],"id":96,"left_children":[1,3,-1,5,7,-1,9,-1,11,-1,-1,13,-1,-1,-1],"loss_changes":[1.6192764E0,3.2045498E0,0E0,6.0351527E-1,2.2552793E0,0E0,9.948634E-1,0E0,6.6994846E-1,0E0,0E0,3.242811E-1,0E0,0E0,0E0],"parents":[2147483647,0,0,1,1,3,3,4,4,6,6,8,8,11,11],"right_children":[2,4,-1,6,8,-1,10,-1,12,-1,-1,14,-1,-1,-1],"split_conditions":[7.1364427E-1,-2.9822543E-1,-5.06925E-3,-6.2100756E-1,1.4669484E-1,-5.0136405E-3,-5.063128E-1,1.305275E-2,5.862667E-1,5.218708E-3,-3.838569E-3,2.8574347E-1,5.146685E-3,1.7039421E-3,-3.8433396E-3],"split_indices":[1,1,0,1,1,0,1,0,1,0,0,1,0,0,0],"split_type":[0,0,0,0,0,0,0,0,0,0,0,0,0,0,0],"sum_hessian":[1.7591997E1,1.2985275E1,4.6067224E0,7.1938615E0,5.791414E0,4.3135457E0,2.880316E0,1.8736471E0,3.9177666E0,1.2868443E0,1.5934719E0,2.6190946E0,1.298672E0,1.0219297E0,1.5971649E0],"tree_param":{"num_deleted":"0","num_feature":"5","num_nodes":"15","size_leaf_vector":"0"}},{"base_weights":[1.4596245E-1,-5.3919107E-3,7.06383E-1,8.4918845E-1,-1.5169624E-4,-1.7499562E-1,1.3339394E-2,-3.8152733E-3,1.7740437E-3],"categories":[],"categories_nodes":[],"categories_segments":[],"categories_sizes":[],"default_left":[0,0,0,0,0,0,0,0,0],"id":97,"left_children":[1,-1,3,5,-1,7,-1,-1,-1],"loss_changes":[7.110733E0,0E0,1.0509114E0,4.41726E0,0E0,3.2906264E-1,0E0,0E0,0E0],"parents":[2147483647,0,0,2,2,3,3,5,5],"right_children":[2,-1,4,6,-1,8,-1,-1,-1],"split_conditions":[-6.38704E-2,-5.3919107E-3,2.707447E-1,7.485523E-1,-1.5169624E-4,-4.4859472E-1,1.3339394E-2,-3.8152733E-3,1.7740437E-3],"split_indices":[3,0,4,1,0,4,0,0,0],"split_type":[0,0,0,0,0,0,0,0,0],"sum_hessian":[1.6526854E1,7.452964E0,9.07389E0,7.4270763E0,1.6468134E0,2.5912566E0,4.8358197E0,1.5816448E0,1.0096117E0],"tree_param":{"num_deleted":"0","num_feature":"5","num_nodes":"9","size_leaf_vector":"0"}},{"base_weights":[-7.271413E-2,-3.377593E-1,5.665491E-1,-4.456809E-3,-3.008161E-2,7.22852E-3,5.4153585E-4,-3.992421E-3,3.8435897E-3],"categories":[],"categories_nodes":[],"categories_segments":[],"categories_sizes":[],"default_left":[0,0,0,0,0,0,0,0,0],"id":98,"left_children":[1,3,5,-1,7,-1,-1,-1,-1],"loss_changes":[3.1475816E0,4.1694474E-1,4.0032446E-1,0E0,8.3242995E-1,0E0,0E0,0E0,0E0],"parents":[2147483647,0,0,1,1,2,2,4,4],"right_children":[2,4,6,-1,8,-1,-1,-1,-1],"split_conditions":[6.8404317E-1,4.483751E-1,1.3207794E0,-4.456809E-3,-5.034115E-1,7.22852E-3,5.4153585E-4,-3.992421E-3,3.8435897E-3],"split_indices":[3,4,2,0,3,0,0,0,0],"split_type":[0,0,0,0,0,0,0,0,0],"sum_hessian":[1.6447685E1,1.1960416E1,4.4872694E0,8.5225115E0,3.4379044E0,3.1236806E0,1.3635888E0,1.8376768E0,1.6002276E0],"tree_param":{"num_deleted":"0","num_feature":"5","num_nodes":"9","size_leaf_vector":"0"}},{"base_weights":[1.654719E-1,1.0461457E0,-4.7170296E-1,-3.4509678E-3,1.3561004E-2,-1.9286548E-1,-5.407249E-3,1.0178463E-3,-3.7651334E-3],"categories":[],"categories_nodes":[],"categories_segments":[],"categories_sizes":[],"default_left":[0,0,0,0,0,0,0,0,0],"id":99,"left_children":[1,3,5,-1,-1,7,-1,-1,-1],"loss_changes":[1.0756041E1,3.912652E0,1.1320186E-1,0E0,0E0,2.4376862E-1,0E0,0E0,0E0],"parents":[2147483647,0,0,1,1,2,2,5,5],"right_children":[2,4,6,-1,-1,8,-1,-1,-1],"split_conditions":[-5.5685896E-1,-1.3144956E0,8.407122E-2,-3.4509678E-3,1.3561004E-2,1.9573748E-1,-5.407249E-3,1.0178463E-3,-3.7651334E-3],"split_indices":[3,3,0,0,0,4,0,0,0],"split_type":[0,0,0,0,0,0,0,0,0],"sum_hessian":[1.7288685E1,6.988144E0,1.0300541E1,1.2525686E0,5.735575E0,2.796678E0,7.5038633E0,1.2449713E0,1.5517067E0],"tree_param":{"num_deleted":"0","num_feature":"5","num_nodes":"9","size_leaf_vector":"0"}},{"base_weights":[-3.6423013E-1,1.1924279E-2,-5.7351785E-3],"categories":[],"categories_nodes":[],"categories_segments":[],"categories_sizes":[],"default_left":[0,0,0],"id":100,"left_children":[1,-1,-1],"loss_changes":[6.687212E0,0E0,0E0],"parents":[2147483647,0,0],"right_children":[2,-1,-1],"split_conditions":[-1.6016924E0,1.1924279E-2,-5.7351785E-3],"split_indices":[1,0,0],"split_type":[0,0,0],"sum_hessian":[1.7427038E1,1.508611E0,1.5918427E1],"tree_param":{"num_deleted":"0","num_feature":"5","num_nodes":"3","size_leaf_vector":"0"}},{"base_weights":[-4.5829106E-2,-4.9248845E-3,1.3398239E-1,-2.2610685E-1,8.4166074E-1,4.4759553E-2,-4.8868298E-3,1.0484071E-2,3.2501903E-3,4.768844E-1,-4.202275E-3,6.6802246E-3,9.532444E-4],"categories":[],"categories_nodes":[],"categories_segments":[],"categories_sizes":[],"default_left":[0,0,0,0,0,0,0,0,0,0,0,0,0],"id":101,"left_children":[1,-1,3,5,7,9,-1,-1,-1,11,-1,-1,-1],"loss_changes":[1.3990837E0,0E0,3.4063468E0,6.7283714E-1,1.3647366E-1,1.2897139E0,0E0,0E0,0E0,1.7541426E-1,0E0,0E0,0E0],"parents":[2147483647,0,0,2,2,3,3,4,4,5,5,9,9],"right_children":[2,-1,4,6,8,10,-1,-1,-1,12,-1,-1,-1],"split_conditions":[-7.4320406E-1,-4.9248845E-3,1.9682486E-1,-2.9329234E-1,6.1622757E-1,7.1364427E-1,-4.8868298E-3,1.0484071E-2,3.2501903E-3,1.9135234E-1,-4.202275E-3,6.6802246E-3,9.532444E-4],"split_indices":[1,0,4,4,4,1,0,0,0,1,0,0,0],"split_type":[0,0,0,0,0,0,0,0,0,0,0,0,0],"sum_hessian":[1.5598487E1,3.9780152E0,1.1620472E1,8.152643E0,3.4678292E0,4.4212937E0,3.7313495E0,1.7416095E0,1.7262197E0,2.2783635E0,2.14293E0,1.017761E0,1.2606025E0],"tree_param":{"num_deleted":"0","num_feature":"5","num_nodes":"13","size_leaf_vector":"0"}},{"base_weights":[1.8391499E-1,-5.403016E-3,7.8371614E-1,-3.4756395E-3,9.82543E-1,4.157672E-1,1.1306417E-2,6.289298E-3,5.298403E-4],"categories":[],"categories_nodes":[],"categories_segments":[],"categories_sizes":[],"default_left":[0,0,0,0,0,0,0,0,0],"id":102,"left_children":[1,-1,3,-1,5,7,-1,-1,-1],"loss_changes":[8.202289E0,0E0,2.6365118E0,0E0,2.802782E-1,2.3219907E-1,0E0,0E0,0E0],"parents":[2147483647,0,0,2,2,4,4,5,5],"right_children":[2,-1,4,-1,6,8,-1,-1,-1],"split_conditions":[-3.3778552E-2,-5.403016E-3,2.0603707E-1,-3.4756395E-3,-6.082245E-1,-1.1256716E0,1.1306417E-2,6.289298E-3,5.298403E-4],"split_indices":[2,0,1,0,4,4,0,0,0],"split_type":[0,0,0,0,0,0,0,0,0],"sum_hessian":[1.6907682E1,7.7043877E0,9.203294E0,1.263902E0,7.939392E0,2.4335456E0,5.5058465E0,1.070765E0,1.3627805E0],"tree_param":{"num_deleted":"0","num_feature":"5","num_nodes":"9","size_leaf_vector":"0"}},{"base_weights":[5.9397966E-3,-2.781364E-1,6.683447E-1,-5.2120946E-3,-3.6750738E-2,9.738139E-3,2.8124505E-1,2.7160817E-1,-4.5134295E-3,-2.2510393E-4,5.1095844E-3,5.3009246E-3,5.0238226E-2,-3.7776509E-3,5.005195E-3],"categories":[],"categories_nodes":[],"categories_segments":[],"categories_sizes":[],"default_left":[0,0,0,0,0,0,0,0,0,0,0,0,0,0,0],"id":103,"left_children":[1,3,5,-1,7,-1,9,11,-1,-1,-1,-1,13,-1,-1],"loss_changes":[3.6529849E0,7.788787E-1,4.147818E-1,0E0,1.1325597E0,0E0,2.8885245E-1,2.68329E-1,0E0,0E0,0E0,0E0,9.3711585E-1,0E0,0E0],"parents":[2147483647,0,0,1,1,2,2,4,4,6,6,7,7,12,12],"right_children":[2,4,6,-1,8,-1,10,12,-1,-1,-1,-1,14,-1,-1],"split_conditions":[6.8404317E-1,-3.3912957E-1,7.485523E-1,-5.2120946E-3,5.592303E-1,9.738139E-3,1.1847882E0,-7.799794E-2,-4.5134295E-3,-2.2510393E-4,5.1095844E-3,5.3009246E-3,-3.0224347E-1,-3.7776509E-3,5.005195E-3],"split_indices":[3,1,1,0,1,0,1,1,0,0,0,0,3,0,0],"split_type":[0,0,0,0,0,0,0,0,0,0,0,0,0,0,0],"sum_hessian":[1.742499E1,1.2601061E1,4.8239274E0,5.700984E0,6.9000773E0,1.8490957E0,2.9748318E0,4.1547794E0,2.7452981E0,1.669379E0,1.3054528E0,1.2733465E0,2.8814325E0,1.5598264E0,1.3216064E0],"tree_param":{"num_deleted":"0","num_feature":"5","num_nodes":"15","size_leaf_vector":"0"}},{"base_weights":[1.8279138E-1,9.419105E-1,-4.6625102E-1,-3.4474616E-3,1.1902355E0,-1.8928581E-1,-5.371334E-3,1.3051649E-2,4.120894E-3,-3.7321902E-3,1.0297763E-3],"categories":[],"categories_nodes":[],"categories_segments":[],"categories_sizes":[],"default_left":[0,0,0,0,0,0,0,0,0,0,0],"id":104,"left_children":[1,3,5,-1,7,9,-1,-1,-1,-1,-1],"loss_changes":[9.834704E0,3.3244123E0,1.1327767E-1,0E0,1.6594982E-1,2.4138078E-1,0E0,0E0,0E0,0E0,0E0],"parents":[2147483647,0,0,1,1,2,2,4,4,5,5],"right_children":[2,4,6,-1,8,10,-1,-1,-1,-1,-1],"split_conditions":[-2.5945242E-2,-1.3144956E0,8.407122E-2,-3.4474616E-3,3.8599694E-1,2.6258436E-1,-5.371334E-3,1.3051649E-2,4.120894E-3,-3.7321902E-3,1.0297763E-3],"split_indices":[1,3,0,0,0,3,0,0,0,0,0],"split_type":[0,0,0,0,0,0,0,0,0,0,0],"sum_hessian":[1.806947E1,8.120505E0,9.948964E0,1.2508962E0,6.8696094E0,2.7752802E0,7.1736836E0,5.395446E0,1.4741635E0,1.5333105E0,1.2419696E0],"tree_param":{"num_deleted":"0","num_feature":"5","num_nodes":"11","size_leaf_vector":"0"}},{"base_weights":[-3.871256E-1,1.0413766E-2,-5.677779E-3],"categories":[],"categories_nodes":[],"categories_segments":[],"categories_sizes":[],"default_left":[0,0,0],"id":105,"left_children":[1,-1,-1],"loss_changes":[4.706393E0,0E0,0E0],"parents":[2147483647,0,0],"right_children":[2,-1,-1],"split_conditions":[-1.3921086E0,1.0413766E-2,-5.677779E-3],"split_indices":[0,0,0],"split_type":[0,0,0],"sum_hessian":[1.4946239E1,1.1430526E0,1.3803187E1],"tree_param":{"num_deleted":"0","num_feature":"5","num_nodes":"3","size_leaf_vector":"0"}},{"base_weights":[-1.0552856E-1,-3.3737424E-1,3.5392538E-1,-1.0392198E-1,-4.3392232E-1,5.7842374E-1,-3.452518E-3,-4.502882E-3,4.9643996E-3,-2.3381412E-1,-5.0554136E-3,-3.4169713E-3,9.30176E-3,8.423583E-4,-4.053525E-3],"categories":[],"categories_nodes":[],"categories_segments":[],"categories_sizes":[],"default_left":[0,0,0,0,0,0,0,0,0,0,0,0,0,0,0],"id":106,"left_children":[1,3,5,7,9,11,-1,-1,-1,13,-1,-1,-1,-1,-1],"loss_changes":[2.090316E0,2.4361348E-1,1.2503052E0,1.2762529E0,7.149577E-3,2.0786035E0,0E0,0E0,0E0,2.6142251E-1,0E0,0E0,0E0,0E0,0E0],"parents":[2147483647,0,0,1,1,2,2,3,3,4,4,5,5,9,9],"right_children":[2,4,6,8,10,12,-1,-1,-1,14,-1,-1,-1,-1,-1],"split_conditions":[2.0668557E-1,-9.429394E-2,6.138985E-1,-7.361953E-1,6.8404317E-1,-7.485949E-1,-3.452518E-3,-4.502882E-3,4.9643996E-3,-4.221562E-1,-5.0554136E-3,-3.4169713E-3,9.30176E-3,8.423583E-4,-4.053525E-3],"split_indices":[4,2,1,3,3,1,0,0,0,4,0,0,0,0,0],"split_type":[0,0,0,0,0,0,0,0,0,0,0,0,0,0,0],"sum_hessian":[1.750231E1,1.180904E1,5.69327E0,4.0624504E0,7.7465897E0,4.4402585E0,1.2530117E0,2.7346969E0,1.3277537E0,3.1658096E0,4.5807805E0,1.2359145E0,3.2043438E0,1.2875316E0,1.8782778E0],"tree_param":{"num_deleted":"0","num_feature":"5","num_nodes":"15","size_leaf_vector":"0"}},{"base_weights":[1.4296974E-1,-5.445806E-3,7.3403937E-1,-1.6282614E-1,1.45566715E-2,6.6101616E-3,-4.9198805E-3],"categories":[],"categories_nodes":[],"categories_segments":[],"categories_sizes":[],"default_left":[0,0,0,0,0,0,0],"id":107,"left_children":[1,-1,3,5,-1,-1,-1],"loss_changes":[8.06011E0,0E0,7.0727654E0,1.8461388E0,0E0,0E0,0E0],"parents":[2147483647,0,0,2,2,3,3],"right_children":[2,-1,4,6,-1,-1,-1],"split_conditions":[-6.38704E-2,-5.445806E-3,7.9302883E-1,3.0569205E-1,1.45566715E-2,6.6101616E-3,-4.9198805E-3],"split_indices":[3,0,1,2,0,0,0],"split_type":[0,0,0,0,0,0,0],"sum_hessian":[1.7849785E1,8.2878065E0,9.561979E0,4.608602E0,4.953377E0,1.0278559E0,3.5807462E0],"tree_param":{"num_deleted":"0","num_feature":"5","num_nodes":"7","size_leaf_vector":"0"}},{"base_weights":[-6.8453928E-3,-5.208159E-3,2.5639105E-1,-2.0751224E-1,9.7537327E-1,5.2771685E-3,-4.029914E-1,1.1192083E-2,1.8023148E-3,-5.1938486E-3,9.956971E-4],"categories":[],"categories_nodes":[],"categories_segments":[],"categories_sizes":[],"default_left":[0,0,0,0,0,0,0,0,0,0,0],"id":108,"left_children":[1,-1,3,5,7,-1,9,-1,-1,-1,-1],"loss_changes":[2.6745994E0,0E0,4.5685673E0,1.4747192E0,4.0549612E-1,0E0,4.9065328E-1,0E0,0E0,0E0,0E0],"parents":[2147483647,0,0,2,2,3,3,4,4,6,6],"right_children":[2,-1,4,6,8,-1,10,-1,-1,-1,-1],"split_conditions":[-3.3912957E-1,-5.208159E-3,9.001035E-1,-7.799794E-2,9.101779E-1,5.2771685E-3,1.1847882E0,1.1192083E-2,1.8023148E-3,-5.1938486E-3,9.956971E-4],"split_indices":[1,0,2,1,1,0,1,0,0,0,0],"split_type":[0,0,0,0,0,0,0,0,0,0,0],